tree
version=v3
num_class=1
num_tree_per_iteration=1
label_index=0
max_feature_idx=5
objective=regression
feature_names=FLOWFACTOR SPACING DEP_TIME TOOL S_X S_Y
feature_infos=[0.88700000000000001:1.0029999999999999] [0.33399999999999996:0.36299999999999999] [66.373000000000005:76.007999999999996] 3:2:1:0 [-147000:147000] [-147000:147000]
tree_sizes=20203 20476 20471 20491 20509 20511 20499 20536 20437 20428 20488 20546 20590 20570 20576 20524 20611 20638 20556 20468 20591 20671 20625 20598 20699 20698 20695 20667 20780 20730 20756 20798 20780 20844 20770 20824 20756 20675 20781 20742 20866 20870 20895 20878 20796 20824 20806 20901 20866 20886 20915 20868 20776 20854 20850 20764 20842 20864 20822 20770 20762 20781 20790 20746 20822 20851 20715 20672 20705 20819 20881 20797 20824 20848 20789 20924 20888 20891 20649 20635 20751 20730 20982 20816 20563 20633 20721 20665 20761 20598 20904 20549 20852 20860 20633 20651 20818 20904 20659 20657

Tree=0
num_leaves=250
num_cat=26
split_feature=3 2 0 0 2 2 2 1 2 1 0 0 2 1 3 3 0 2 4 4 5 5 3 1 3 1 3 1 0 3 1 4 5 5 4 2 0 3 4 5 5 4 2 3 2 0 3 0 5 5 4 4 2 1 0 3 5 5 4 4 0 3 1 3 4 4 5 5 5 4 4 5 2 5 5 4 4 0 0 0 2 4 4 5 5 0 4 5 5 4 4 5 5 4 4 4 5 5 1 4 4 5 5 3 5 1 2 3 3 5 0 5 4 4 0 0 4 0 3 2 0 3 4 4 5 3 2 2 1 3 5 4 5 4 2 5 5 4 4 1 2 5 2 5 4 4 3 1 5 5 4 4 0 2 0 2 0 5 5 4 4 2 1 5 5 4 4 1 0 4 4 5 5 0 1 1 0 5 5 4 4 4 4 0 0 5 5 4 0 2 1 4 3 4 4 2 0 3 5 4 4 5 4 4 0 4 5 5 5 4 5 4 4 0 0 2 5 0 5 4 5 5 4 0 0 0 4 2 3 2 3 4 4 0 1 0 4 4 2 3 1 4 4 1 2 1 0 2 5
split_gain=1.7956e+07 1.26344e+07 4.86322e+06 3.58047e+06 2.34437e+06 1.472e+06 1.28714e+06 1.23167e+06 1.05259e+06 844140 823466 658232 653562 652081 593510 509609 413929 339058 272362 336009 354474 439228 261509 261366 260694 247489 241247 232397 229480 224159 207556 194648 208839 235498 242421 185806 154294 151312 150763 156063 197430 223504 130183 126510 117560 112018 108760 107049 106043 139029 144691 202277 103740 97150.2 93015.1 92967.8 90071.6 126322 126134 162125 82870.3 80157.9 78095.6 94763 75618.7 88877.7 92989.4 93627.6 72632.8 72212.5 98420.5 95838.3 69550.1 67514.6 78587.1 77957.4 97956.5 60780.7 60529.2 60443.5 60304.6 55467.5 75478.3 68301.9 87846 55288.2 54031.3 58868.7 54937.3 61573.9 53165.4 59356 79524.6 81120 51040.8 51231.7 57368.2 79093.6 50620 50476.1 70207.7 60299.8 75763 49145.6 48519.2 48335.8 46714.8 46045 45835.9 45406 43546 43173.3 43186.5 54215.1 42930 41383.8 41350.9 40816.3 46468.9 40080.4 39873.1 43471 39825 49499.8 54868.5 39482.5 38729.5 38601.7 51975.8 37780.4 37656.3 39477.6 41341.3 47693.6 35196.5 35140.8 43124.3 37162.3 44789.7 33779.1 33741.1 33528.8 33446.7 33146.1 32967.1 32675.5 31407.2 31091.8 31065 40143.7 41060.6 52318.2 29768.4 29435.8 29168.8 28106.3 28071.9 26250.6 28488.6 29384.6 34222.4 25730.9 25598.2 25053.6 32812.5 29979 24915.7 24904.1 40024.2 24041.6 28251.6 23827.8 30712 23347 23117.2 22633.2 22345.9 22118.5 42461 30657 37686.7 20979.7 20618.9 20593.2 20486.6 20219.6 28256.4 26666 20205.7 20184 19605.9 19561.1 19414.6 19060.1 25526.7 19016.2 18782.5 18547.2 21888.6 18988 26783.9 25442.6 18431.3 18284.3 18182.3 17020.8 16760.6 16700.1 22474.9 17224.1 16463 18190.7 16844.2 16448.5 15912.5 18585.4 15813.8 15742.4 15725.8 15702.9 15398.8 19090.3 20327.6 15186.1 15080 18019 14832.2 14644.5 14490.3 14272.9 14046.2 13946.5 16800.7 13855.1 13814.2 13614.9 13521.4 14850.3 13426.6 13330.4 30080.5 13029 15910.2 13011.3 12942.2 12923.4 15896.1 12652 12606.5
threshold=0 68.895000000000024 0.94850000000000012 0.95950000000000013 70.565500000000014 68.010000000000005 71.620000000000019 0.35650000000000009 68.164500000000018 0.34850000000000003 0.97850000000000015 0.97150000000000014 68.895000000000024 0.35050000000000009 1 2 0.91100000000000014 74.673500000000018 100972.50000000001 -100972.49999999999 115625.50000000001 -100972.49999999999 3 0.35250000000000009 4 0.35650000000000009 5 0.35050000000000009 0.95850000000000013 6 0.34850000000000003 -100972.49999999999 -100972.49999999999 100972.50000000001 115625.50000000001 73.133000000000024 0.9295000000000001 7 -100972.49999999999 -100972.49999999999 100972.50000000001 115625.50000000001 73.133000000000024 8 70.607000000000014 0.97450000000000014 9 0.95850000000000013 100972.50000000001 -100972.49999999999 115625.50000000001 -100972.49999999999 73.281500000000008 0.34750000000000009 0.94450000000000012 10 100972.50000000001 -100972.49999999999 -100972.49999999999 115625.50000000001 1.0025000000000002 11 0.35150000000000009 12 -100972.49999999999 100972.50000000001 -100972.49999999999 115625.50000000001 100972.50000000001 -100972.49999999999 100972.50000000001 -100972.49999999999 70.582000000000008 -100972.49999999999 100972.50000000001 -100972.49999999999 115625.50000000001 0.94450000000000012 0.9285000000000001 0.93750000000000011 67.313000000000017 -100972.49999999999 100972.50000000001 115625.50000000001 -100972.49999999999 0.96650000000000014 100972.50000000001 100972.50000000001 -100972.49999999999 -100972.49999999999 100972.50000000001 100972.50000000001 -100972.49999999999 -100972.49999999999 100972.50000000001 -100972.49999999999 -100972.49999999999 115625.50000000001 0.35650000000000009 59148.250000000007 -36075.599609374993 82020.101562500015 -59148.249999999993 13 -100972.49999999999 0.35050000000000009 72.006000000000014 14 15 -100972.49999999999 0.93950000000000011 100972.50000000001 115625.50000000001 -100972.49999999999 0.94250000000000012 0.93950000000000011 -100972.49999999999 0.93950000000000011 16 69.936000000000021 0.93250000000000011 17 100972.50000000001 -100972.49999999999 115625.50000000001 18 73.949000000000012 70.582000000000008 0.34950000000000003 19 -100972.49999999999 100972.50000000001 100972.50000000001 -100972.49999999999 68.800500000000014 -100972.49999999999 100972.50000000001 -100972.49999999999 115625.50000000001 0.34150000000000008 71.183500000000024 -100972.49999999999 70.213000000000008 100972.50000000001 -100972.49999999999 -94270.101562499985 20 0.34750000000000009 100972.50000000001 -100972.49999999999 -100972.49999999999 115625.50000000001 0.98700000000000021 70.213000000000008 0.94650000000000012 67.723000000000027 0.92200000000000004 -100972.49999999999 100972.50000000001 115625.50000000001 -100972.49999999999 69.893500000000017 0.34750000000000009 100972.50000000001 -100972.49999999999 115625.50000000001 -100972.49999999999 0.33850000000000008 0.92600000000000016 36075.599609375007 100972.50000000001 -100972.49999999999 100972.50000000001 0.96550000000000014 0.35450000000000004 0.34750000000000009 0.95750000000000013 59148.250000000007 -36075.599609374993 82020.101562500015 -59148.249999999993 36075.599609375007 115625.50000000001 0.98700000000000021 0.92200000000000004 100972.50000000001 -100972.49999999999 115625.50000000001 0.97850000000000015 70.213000000000008 0.34750000000000009 100972.50000000001 21 36075.599609375007 -36075.599609374993 71.183500000000024 0.96550000000000014 22 -100972.49999999999 100972.50000000001 -100972.49999999999 115625.50000000001 -100972.49999999999 -100972.49999999999 0.9305000000000001 -36075.599609374993 115625.50000000001 100972.50000000001 -100972.49999999999 94270.101562500015 -100972.49999999999 -100972.49999999999 94270.101562500015 0.88900000000000012 0.97850000000000015 70.582000000000008 -100972.49999999999 0.97850000000000015 -100972.49999999999 100972.50000000001 -100972.49999999999 100972.50000000001 -100972.49999999999 0.96550000000000014 0.91750000000000009 0.92200000000000004 100972.50000000001 71.183500000000024 23 71.183500000000024 24 36075.599609375007 -36075.599609374993 0.95750000000000013 0.35150000000000009 0.94350000000000012 36075.599609375007 -1.3501280388822343e-11 69.936000000000021 25 0.35350000000000004 -100972.49999999999 100972.50000000001 0.34650000000000009 69.936000000000021 0.35350000000000004 0.97850000000000015 67.53700000000002 100972.50000000001
decision_type=1 2 2 2 2 2 2 2 2 2 2 2 2 2 1 1 2 2 2 2 2 2 1 2 1 2 1 2 2 1 2 2 2 2 2 2 2 1 2 2 2 2 2 1 2 2 1 2 2 2 2 2 2 2 2 1 2 2 2 2 2 1 2 1 2 2 2 2 2 2 2 2 2 2 2 2 2 2 2 2 2 2 2 2 2 2 2 2 2 2 2 2 2 2 2 2 2 2 2 2 2 2 2 1 2 2 2 1 1 2 2 2 2 2 2 2 2 2 1 2 2 1 2 2 2 1 2 2 2 1 2 2 2 2 2 2 2 2 2 2 2 2 2 2 2 2 1 2 2 2 2 2 2 2 2 2 2 2 2 2 2 2 2 2 2 2 2 2 2 2 2 2 2 2 2 2 2 2 2 2 2 2 2 2 2 2 2 2 2 2 2 2 1 2 2 2 2 1 2 2 2 2 2 2 2 2 2 2 2 2 2 2 2 2 2 2 2 2 2 2 2 2 2 2 2 2 2 2 1 2 1 2 2 2 2 2 2 2 2 1 2 2 2 2 2 2 2 2 2
left_child=2 5 12 4 7 22 11 15 47 14 27 37 80 29 35 23 44 26 19 61 21 108 73 53 25 54 148 85 64 86 42 175 190 34 55 79 156 81 115 110 41 52 114 -38 98 109 141 233 49 -31 51 -51 99 119 140 78 57 -30 -59 247 103 183 63 203 -24 66 -66 176 69 -29 71 -71 144 -2 75 -75 155 224 181 184 -1 -5 83 84 -83 106 87 88 -7 -90 91 92 -45 -94 95 -47 -97 -98 -14 100 -41 102 -102 245 -19 -28 134 -20 -21 -15 -40 112 113 -111 167 195 -48 227 -119 191 229 -122 123 -106 152 -117 161 128 -105 -22 -64 132 133 -132 -10 -74 137 -137 243 -49 235 -9 188 145 -12 -143 -112 -53 149 -8 -151 -152 -125 217 -27 -77 -16 -55 159 160 -159 -73 -87 164 -146 -166 -141 -18 -169 -136 206 -118 182 -163 -25 244 -68 178 -57 180 -180 205 228 -13 -6 186 -168 236 -109 -131 238 202 -149 194 -80 -26 -65 231 -199 200 -200 -202 -3 -39 -142 -34 -171 208 -205 -210 -107 -212 -213 -46 -110 -216 -37 -63 -108 220 -56 222 -222 230 -32 -226 -220 -42 -173 -43 -135 232 -158 -4 -130 -11 237 -188 -33 240 -129 -218 -243 -139 -17 246 -23 -60 -79
right_child=1 3 8 6 9 13 17 46 10 24 72 18 16 45 36 31 30 104 107 20 129 60 28 174 38 154 105 68 56 48 77 32 33 -35 -36 216 43 62 39 40 117 120 -44 90 213 94 116 139 -50 50 -52 147 -54 157 219 177 -58 58 59 -61 -62 153 130 196 65 -67 67 -69 -70 70 -72 126 135 74 -76 76 -78 248 193 -81 -82 82 -84 -85 -86 162 -88 -89 89 -91 -92 -93 93 -95 -96 96 97 -99 -100 -101 101 -103 -104 127 122 210 218 142 214 111 146 -113 -114 -115 -116 125 171 118 -120 -121 121 -123 -124 124 -126 -127 -128 239 234 189 131 -133 -134 223 169 136 -138 138 -140 166 204 143 -144 -145 163 -147 -148 192 -150 150 151 -153 -154 -155 -156 -157 197 158 -160 -161 -162 173 -164 -165 165 -167 185 168 -170 170 -172 172 -174 -175 -176 -177 -178 -179 179 -181 -182 -183 -184 -185 -186 -187 187 -189 -190 -191 -192 -193 -194 -195 -196 -197 -198 198 199 -201 201 -203 -204 207 -206 -207 -208 -209 209 -211 211 212 -214 -215 215 -217 241 -219 226 -221 221 -223 -224 -225 225 -227 -228 -229 -230 -231 -232 -233 -234 -235 -236 -237 -238 -239 -240 -241 -242 242 -244 -245 -246 -247 -248 -249 -250
leaf_value=1503.3033010134855 1495.6238009362601 1502.9518578346381 1502.4963460417246 1499.3540451074025 1507.4711131710476 1500.7507140966927 1499.5931497488455 1499.3202724285381 1505.0279201873375 1504.2238074070558 1500.2548591494426 1497.9141598683711 1508.2258102233361 1497.7493046121749 1505.2829123572062 1500.9878268542529 1506.6477258070688 1502.9875843691636 1497.5697759710315 1497.5172887262538 1497.4743501575233 1501.4106363388282 1497.75834258791 1502.6174079373986 1501.8788618903211 1502.4994335106401 1503.5683664469996 1502.8078362009912 1496.2541035436025 1498.8818159348193 1506.0130618847811 1501.0033716636935 1502.3851625578179 1501.1021293886627 1501.2439647504618 1503.5231774672027 1504.2616636513844 1502.335310857321 1503.0103538309074 1504.2287257698122 1502.1476807459574 1502.3471536956113 1505.8989350257841 1501.7168973802309 1508.5020254683443 1496.4588647884793 1498.0527733546523 1502.5133522731942 1498.9048983791247 1498.9388297745127 1498.8703821824836 1500.9023049811567 1505.4143074543613 1502.5537556782592 1503.269943978489 1504.1743024470979 1496.2559282013017 1496.2114133018918 1498.9619996551689 1496.2596522390779 1499.8854471321713 1499.5348857351005 1500.1085993983413 1501.2862618657232 1497.7148482765192 1497.8296474117703 1500.4988560053091 1497.9460067698446 1502.7248017782804 1503.0255177505196 1502.8404960326081 1504.128112854798 1501.5000049810355 1495.7099594458323 1495.7673855548851 1498.0231745450931 1495.6523512546601 1505.8113372355233 1503.6299694911745 1505.6208247433369 1505.0358238183228 1499.5447806700449 1499.3801386566574 1499.3687127455455 1502.4160505802499 1505.2634479888961 1500.229392589993 1500.4309967116985 1500.757601043927 1503.1030842863056 1501.6849110460792 1501.7487644979185 1501.8502953839488 1504.271863177391 1496.1911154212771 1496.3369121779185 1499.4374515639049 1496.3566662977917 1506.3222758444529 1504.5827680510927 1504.436182470947 1504.5889237089441 1502.5871057638569 1502.6833500482273 1503.2537030731273 1501.217879507856 1503.5714769919794 1499.2847070082407 1500.0767909051501 1498.0275378742742 1502.2722298762169 1498.0662478228087 1497.9959381404165 1500.7129580610676 1506.9203847541269 1502.2849265923273 1498.4453659951857 1502.5392736276522 1500.8395529020547 1505.1993012822004 1502.6364879497924 1500.9280672177058 1503.2316378008375 1506.8823568961016 1503.3127479591635 1500.8238488174202 1506.6189313118043 1502.915032515479 1501.6075625985432 1498.2567565818135 1500.3753404204431 1500.1076662570138 1500.3300095014724 1502.4935596210603 1505.6065084593229 1501.692488236393 1501.7392259237183 1505.0159471199756 1501.9270815113566 1499.8820666951983 1505.9715080835649 1499.7878204255683 1499.6969774459742 1499.409724708436 1500.4977582796794 1502.0176983049416 1500.8797468634825 1501.5872815819794 1499.6015590923139 1499.609126738291 1502.5175277079832 1499.7571300167508 1505.3006738194208 1499.9283526001909 1500.8699062445562 1499.442361834087 1504.9262523960419 1502.7128539199514 1502.6856655501417 1502.6922767865951 1504.2995057284086 1505.6894715408077 1504.1044123197944 1500.623256721093 1502.9354527347241 1500.8659798600938 1500.0875704047794 1508.4398273823438 1507.6159672493354 1507.0379896234911 1505.5453366876027 1499.8330924174277 1498.4763398306384 1504.6094452878363 1501.4835462734986 1500.6153052605475 1501.7492980712086 1504.3708610590677 1504.3586947234128 1504.3218295212398 1502.4956739335651 1502.8633785518957 1498.9096869406212 1496.1487986906748 1506.5119680021 1500.0883523741877 1502.0161278236358 1500.1590297527571 1497.4852361165329 1499.6692983131354 1500.7104184615673 1502.7355818932504 1502.4083473778699 1503.8622644925974 1502.3988528768791 1503.3545329699868 1502.2917311306978 1502.9958932709126 1503.2822359404843 1503.2027731900357 1505.2034551542749 1503.4421454569083 1504.5638145969795 1502.4976596158724 1504.9876465905159 1501.3103321624415 1505.4549944838268 1502.4622103980555 1504.4214956750911 1502.8449666666229 1501.3061555250865 1503.1893015781425 1501.6554284914714 1509.6558399129462 1497.9309301782034 1499.7060275354161 1503.5860778961055 1497.8775361804755 1505.1616244564623 1503.189901064427 1503.3058939658649 1503.2523787958671 1504.4609821663855 1502.0385415961309 1507.4391029874914 1506.6050895471142 1503.715594515214 1503.5549192359313 1500.7832705438307 1503.9212998467401 1503.7834338460314 1505.3030577027084 1503.795034693464 1503.8727345772381 1500.7026782751145 1505.2422976041219 1502.5625581668596 1500.6916360964215 1502.2680086579167 1502.8984691680992 1501.3101374640446 1505.1285742778671 1503.7430282706005 1503.918165178347 1502.1804671180628 1501.7005025173548 1500.4188491828995 1499.6351271750761 1504.6965323856064
leaf_weight=73 75 21 33 48 70 41 29 26 161 150 31 53 156 35 154 46 44 35 77 53 51 85 63 73 34 76 247 70 82 98 86 41 65 217 185 33 437 31 80 289 29 24 123 50 37 35 51 40 107 77 73 83 115 62 62 155 83 56 165 54 63 23 38 75 38 56 160 34 85 60 72 66 33 48 73 206 42 202 75 204 161 32 47 30 159 79 42 43 33 184 61 54 41 221 37 25 125 25 45 173 69 67 281 80 25 23 25 26 42 22 82 34 23 129 171 91 38 78 83 164 73 76 27 59 21 94 42 61 81 41 24 29 28 39 319 22 38 41 24 45 78 20 89 20 22 92 80 143 33 21 94 21 60 89 43 42 89 40 62 46 226 126 120 27 105 21 36 215 469 102 75 85 37 83 117 186 46 100 33 42 153 63 33 24 272 37 59 26 39 66 163 23 145 83 96 61 122 33 32 29 114 25 114 25 118 85 20 25 99 21 21 96 22 187 30 29 22 38 114 71 45 53 248 43 76 438 21 51 76 36 46 91 52 41 88 42 50 33 43 119 56 121 25 79 45 85 77 121 29
leaf_count=73 75 21 33 48 70 41 29 26 161 150 31 53 156 35 154 46 44 35 77 53 51 85 63 73 34 76 247 70 82 98 86 41 65 217 185 33 437 31 80 289 29 24 123 50 37 35 51 40 107 77 73 83 115 62 62 155 83 56 165 54 63 23 38 75 38 56 160 34 85 60 72 66 33 48 73 206 42 202 75 204 161 32 47 30 159 79 42 43 33 184 61 54 41 221 37 25 125 25 45 173 69 67 281 80 25 23 25 26 42 22 82 34 23 129 171 91 38 78 83 164 73 76 27 59 21 94 42 61 81 41 24 29 28 39 319 22 38 41 24 45 78 20 89 20 22 92 80 143 33 21 94 21 60 89 43 42 89 40 62 46 226 126 120 27 105 21 36 215 469 102 75 85 37 83 117 186 46 100 33 42 153 63 33 24 272 37 59 26 39 66 163 23 145 83 96 61 122 33 32 29 114 25 114 25 118 85 20 25 99 21 21 96 22 187 30 29 22 38 114 71 45 53 248 43 76 438 21 51 76 36 46 91 52 41 88 42 50 33 43 119 56 121 25 79 45 85 77 121 29
internal_value=0 -17.4201 51.8922 -2.73135 8.21049 -75.3535 -30.3595 -12.6139 20.5077 21.4799 29.5302 -41.6058 82.9144 -54.0458 36.1646 -4.66807 88.0841 3.7031 -54.2554 -48.7658 -41.5789 -34.2774 -98.3582 14.2292 10.3868 23.6565 -8.62716 39.864 -88.7731 -40.1994 81.6284 -14.2174 -9.97782 -5.09308 0.677737 59.151 24.5861 -21.0058 3.73173 7.30039 11.239 16.4726 91.1719 15.9525 116.231 -84.2536 -59.5576 -26.477 -50.1527 -45.1279 -38.6281 -31.901 22.7227 22.5423 29.526 7.12701 -101.793 -96.5129 -89.1154 -81.8723 -24.8088 -83.8134 -12.2228 -3.5544 -70.3749 -64.3809 -57.0595 -49.782 24.2736 28.7115 33.369 39.8391 -8.7257 -117.252 -112.217 -105.791 -99.6124 69.8915 -2.93349 68.7202 32.5873 -38.9329 -33.326 -25.5867 -18.6195 48.9533 -19.132 -14.4437 -8.73437 -2.3915 3.71107 8.26645 13.5644 20.5389 -99.2504 -93.2165 -86.2313 -78.8397 98.6735 19.0276 15.2764 6.97461 1.71331 -21.8135 36.6743 5.24384 52.5153 -85.9575 -83.1579 -69.0098 -16.2012 -63.4025 -57.0339 -50.8854 95.3466 -17.7567 -70.1569 -14.8854 -24.0591 35.7158 -13.2529 -22.0179 42.9164 48.7423 56.0616 -26.4686 46.7757 -15.9661 -24.6515 -85.4343 -26.1906 -20.9257 -15.4092 -8.90468 56.1472 2.95602 7.8535 14.8099 20.6582 -34.2712 41.0345 -38.0908 -75.9743 -31.6256 -22.1653 -24.9293 -25.6278 -22.2206 -37.2799 -31.6782 -24.4755 -17.0504 64.3779 -70.3498 -19.1072 -92.049 36.6369 12.8132 15.9724 19.8631 23.8988 42.456 33.9712 -16.841 -11.7304 -5.50864 -38.078 98.6957 100.179 60.1748 68.8608 -65.2072 -61.39 47.8918 -18.9357 -38.6907 -41.7578 16.8542 13.3964 4.71492 -0.795255 -15.3658 -56.3544 -110.041 76.8462 -34.0448 -30.1439 -24.6959 -93.219 -74.7586 -36.7153 24.3492 -17.3061 7.49201 1.45687 -0.791492 -19.1407 32.7614 26.4594 30.3965 34.4091 40.414 28.9419 11.7217 50.2642 -21.7976 78.2502 15.7946 19.91 25.5926 -8.17959 -4.07893 0.747052 131.986 -70.6605 -81.2507 33.1573 -87.2707 37.148 20.2039 22.5924 25.193 28.3521 -1.23444 75.198 77.2487 41.4143 3.57645 -51.687 8.51337 6.51273 39.0906 32.8619 7.85934 -34.5918 31.6126 -19.3049 -26.4987 -24.3045 -6.80229 -14.3819 37.0885 40.507 28.5454 -25.7676 -33.2953 -38.5348 -72.3838 56.1082
internal_weight=0 14847 4995 11844 8484 3003 3360 3302 2483 5182 2083 2526 2512 1559 2230 2824 2278 834 1565 1334 1107 949 1444 948 2952 986 607 1640 958 1069 1853 1876 1599 1352 1135 747 1483 961 1966 1686 1444 1203 1022 864 425 490 478 400 726 619 521 448 994 758 867 950 561 478 396 340 795 227 645 398 397 334 278 240 604 519 449 377 443 486 411 338 290 831 467 546 234 316 268 221 191 1036 343 301 258 217 427 366 312 262 247 210 175 150 201 879 706 417 350 732 227 409 837 231 154 243 242 208 174 151 899 280 320 241 161 322 209 149 192 165 140 185 317 485 249 158 247 209 180 152 677 237 204 166 144 326 388 158 154 132 206 112 162 371 198 165 136 115 119 150 119 248 619 436 374 312 266 275 199 175 148 126 286 728 684 516 197 269 231 209 190 277 206 483 383 228 186 213 194 77 342 241 204 168 65 107 247 158 288 254 171 95 197 465 233 200 171 139 135 201 196 150 122 170 145 120 162 139 118 224 101 59 201 61 160 479 408 346 293 128 600 514 135 80 161 60 85 232 141 74 169 192 142 92 84 236 117 168 146 120 91 247 162 286 231
internal_count=19842 14847 4995 11844 8484 3003 3360 3302 2483 5182 2083 2526 2512 1559 2230 2824 2278 834 1565 1334 1107 949 1444 948 2952 986 607 1640 958 1069 1853 1876 1599 1352 1135 747 1483 961 1966 1686 1444 1203 1022 864 425 490 478 400 726 619 521 448 994 758 867 950 561 478 396 340 795 227 645 398 397 334 278 240 604 519 449 377 443 486 411 338 290 831 467 546 234 316 268 221 191 1036 343 301 258 217 427 366 312 262 247 210 175 150 201 879 706 417 350 732 227 409 837 231 154 243 242 208 174 151 899 280 320 241 161 322 209 149 192 165 140 185 317 485 249 158 247 209 180 152 677 237 204 166 144 326 388 158 154 132 206 112 162 371 198 165 136 115 119 150 119 248 619 436 374 312 266 275 199 175 148 126 286 728 684 516 197 269 231 209 190 277 206 483 383 228 186 213 194 77 342 241 204 168 65 107 247 158 288 254 171 95 197 465 233 200 171 139 135 201 196 150 122 170 145 120 162 139 118 224 101 59 201 61 160 479 408 346 293 128 600 514 135 80 161 60 85 232 141 74 169 192 142 92 84 236 117 168 146 120 91 247 162 286 231
cat_boundaries=0 1 2 3 4 5 6 7 8 9 10 11 12 13 14 15 16 17 18 19 20 21 22 23 24 25 26
cat_threshold=1 8 8 4 8 2 8 2 4 2 4 2 8 2 2 2 4 4 4 2 4 4 4 8 8 8
shrinkage=1


Tree=1
num_leaves=250
num_cat=27
split_feature=3 2 0 0 2 2 2 1 2 1 0 0 2 1 3 3 0 4 4 5 5 3 1 3 1 3 1 0 3 0 4 5 5 4 2 1 1 0 2 4 5 5 4 3 2 0 3 1 0 5 5 4 4 2 3 3 1 0 3 5 5 4 4 3 4 4 5 5 5 4 4 5 2 4 4 5 5 5 5 4 4 0 0 2 3 0 4 5 5 4 4 5 5 4 3 3 4 4 5 5 1 4 4 5 5 2 2 5 0 0 3 5 4 4 4 0 0 2 0 2 2 5 4 5 4 2 2 5 5 4 4 3 1 2 5 5 4 4 2 0 1 3 3 1 1 3 1 0 0 2 0 5 5 4 4 2 2 1 2 5 5 4 4 4 4 3 5 5 0 1 1 0 5 4 5 4 0 4 5 5 4 4 4 0 4 5 5 4 0 4 4 5 5 5 5 4 0 5 1 1 5 3 2 3 5 4 4 5 2 4 4 5 0 2 0 2 5 0 5 5 4 5 5 4 4 4 5 5 0 3 0 3 1 3 0 4 4 0 0 0 5 4 5 5 0 2 4 4 2
split_gain=1.62053e+07 1.14025e+07 4.38905e+06 3.23137e+06 2.11579e+06 1.32848e+06 1.16435e+06 1.11158e+06 949966 761836 743178 721778 589839 588503 535643 459922 373571 262751 324606 343116 426358 236011 235883 235276 223359 219871 209738 207106 202304 188070 175670 188477 212537 218785 167690 140666 139680 139250 137697 115658 119545 148791 168386 114175 106098 101096 98156.2 98107.5 96611.8 95704.1 125474 130583 182555 92350 89684.5 88999.7 87678.1 83946.1 83903.5 81289.6 114006 113836 146318 81217.3 68245.8 80212.1 83922.9 84499 65551.1 65171.8 88824.5 86494 62769 61528.7 82628.2 78875.7 101301 60931.9 70924.9 70356.6 88405.7 54627.6 54550.3 54424.9 50637.4 49897.6 48763.2 53129 49580.9 55570.4 47981.8 53568.8 71771 73210.8 46913.5 46882.6 46064.3 46236.6 51774.8 71382 45684.6 45554.7 63362.4 54420.6 68376.1 43557.4 42160.1 40978.9 40199.2 39863.8 39123.4 38963.9 38975.8 48929.1 37319.2 37280.8 37035.9 36652.4 36348.9 36172.5 34953.4 33984.8 35628.5 37310.6 43043.5 32458.4 31764.9 31714.5 38919.7 33539 40422.7 30895.9 30485.7 30451.3 30259.7 29914.4 29752.8 29489.6 29435.9 29430.5 42347.1 28858.4 28518.1 28060.4 27402.7 29067 41403 27348.4 26324.8 25366 25334.8 23691.2 25711 26519.6 30885.7 23470.3 23222.1 23102.3 22725.3 22610.9 29613.3 27056.1 22486.5 21697.5 25497.1 21566.6 21504.6 27717.6 21070.7 20863.3 20426.4 20167.2 20154.1 25243.9 28895.4 35996.6 20083.5 20026.6 19961.9 38321 27667.9 34012.2 18934.2 18903.6 18608.6 18490.6 24770.9 25448.9 18489.1 18380.7 22968.4 25066.9 29137.1 18248.2 25501.4 24066.1 18235.7 18141.5 18088.7 17694.4 17594.4 17521.6 16773.3 16738.8 19754.5 17136.7 24172.5 22961.9 16522.3 15447.5 15361.3 15126.4 14844.8 14427 14420.2 14284.8 14271.9 14207.5 14192.5 14293.2 14171.9 13897.4 17229 18345.7 13787.3 15178.4 17297.8 23721.5 13705.5 13153.3 13130.5 13077.5 12716.6 12676.7 12600.4 12586.7 15162.6 12504.2 12449.2 21385.8 12441.5 12383.3 12339.2 15400.7 12287.4 12254.7 12203.1 13402.4 12117.5
threshold=0 68.895000000000024 0.94850000000000012 0.95950000000000013 70.565500000000014 68.010000000000005 72.006000000000014 0.35650000000000009 68.164500000000018 0.34850000000000003 0.97850000000000015 0.97150000000000014 68.895000000000024 0.35050000000000009 1 2 0.91100000000000014 100972.50000000001 -100972.49999999999 115625.50000000001 -100972.49999999999 3 0.35250000000000009 4 0.35650000000000009 5 0.35050000000000009 0.95850000000000013 6 0.94350000000000012 -100972.49999999999 -100972.49999999999 100972.50000000001 115625.50000000001 73.133000000000024 0.34850000000000003 0.35450000000000004 0.9295000000000001 73.281500000000008 -100972.49999999999 -100972.49999999999 100972.50000000001 115625.50000000001 7 70.607000000000014 0.97450000000000014 8 0.35150000000000009 0.95850000000000013 100972.50000000001 -100972.49999999999 115625.50000000001 -100972.49999999999 70.213000000000008 9 10 0.34750000000000009 0.94450000000000012 11 100972.50000000001 -100972.49999999999 -100972.49999999999 115625.50000000001 12 -100972.49999999999 100972.50000000001 -100972.49999999999 115625.50000000001 100972.50000000001 -100972.49999999999 100972.50000000001 -100972.49999999999 70.582000000000008 -100972.49999999999 100972.50000000001 115625.50000000001 -100972.49999999999 -100972.49999999999 100972.50000000001 -100972.49999999999 115625.50000000001 0.9285000000000001 0.93750000000000011 67.313000000000017 13 0.96650000000000014 100972.50000000001 100972.50000000001 -100972.49999999999 -100972.49999999999 100972.50000000001 100972.50000000001 -100972.49999999999 -100972.49999999999 14 15 100972.50000000001 -100972.49999999999 -100972.49999999999 115625.50000000001 0.35650000000000009 59148.250000000007 -36075.599609374993 82020.101562500015 -59148.249999999993 71.188500000000019 72.006000000000014 -100972.49999999999 0.94450000000000012 0.97850000000000015 16 100972.50000000001 115625.50000000001 -100972.49999999999 -100972.49999999999 0.94450000000000012 0.94450000000000012 70.213000000000008 0.94450000000000012 69.936000000000021 73.949000000000012 -100972.49999999999 100972.50000000001 100972.50000000001 -100972.49999999999 70.213000000000008 68.800500000000014 -100972.49999999999 100972.50000000001 -100972.49999999999 115625.50000000001 17 0.34150000000000008 71.183500000000024 -100972.49999999999 100972.50000000001 -100972.49999999999 -94270.101562499985 70.044500000000014 0.92600000000000016 0.34300000000000003 18 19 0.34750000000000009 0.3575000000000001 20 0.35350000000000004 0.98250000000000004 0.94650000000000012 67.723000000000027 0.92200000000000004 -100972.49999999999 100972.50000000001 115625.50000000001 -100972.49999999999 70.086000000000027 69.893500000000017 0.34750000000000009 70.213000000000008 100972.50000000001 -100972.49999999999 115625.50000000001 -100972.49999999999 36075.599609375007 100972.50000000001 21 -100972.49999999999 100972.50000000001 0.96550000000000014 0.35450000000000004 0.34750000000000009 0.95750000000000013 -100972.49999999999 -100972.49999999999 100972.50000000001 115625.50000000001 0.98700000000000021 -100972.49999999999 59148.250000000007 -36075.599609374993 82020.101562500015 -59148.249999999993 36075.599609375007 0.97850000000000015 115625.50000000001 100972.50000000001 -100972.49999999999 115625.50000000001 0.92200000000000004 100972.50000000001 -100972.49999999999 -100972.49999999999 115625.50000000001 100972.50000000001 -100972.49999999999 115625.50000000001 0.97850000000000015 100972.50000000001 0.34750000000000009 0.34750000000000009 -100972.49999999999 22 70.582000000000008 23 -100972.49999999999 100972.50000000001 -100972.49999999999 115625.50000000001 71.322500000000005 94270.101562500015 -36075.599609374993 115625.50000000001 0.88900000000000012 71.183500000000024 0.98700000000000021 70.072500000000019 -100972.49999999999 0.97850000000000015 -100972.49999999999 100972.50000000001 100972.50000000001 -100972.49999999999 100972.50000000001 -100972.49999999999 100972.50000000001 -100972.49999999999 -100972.49999999999 115625.50000000001 0.96550000000000014 24 0.98700000000000021 25 0.35150000000000009 26 0.96650000000000014 36075.599609375007 -36075.599609374993 0.95750000000000013 0.91750000000000009 0.9305000000000001 -71398.249999999985 -36075.599609374993 -100972.49999999999 -82020.101562499985 0.94350000000000012 71.183500000000024 36075.599609375007 -1.3501280388822343e-11 69.936000000000021
decision_type=1 2 2 2 2 2 2 2 2 2 2 2 2 2 1 1 2 2 2 2 2 1 2 1 2 1 2 2 1 2 2 2 2 2 2 2 2 2 2 2 2 2 2 1 2 2 1 2 2 2 2 2 2 2 1 1 2 2 1 2 2 2 2 1 2 2 2 2 2 2 2 2 2 2 2 2 2 2 2 2 2 2 2 2 1 2 2 2 2 2 2 2 2 2 1 1 2 2 2 2 2 2 2 2 2 2 2 2 2 2 1 2 2 2 2 2 2 2 2 2 2 2 2 2 2 2 2 2 2 2 2 1 2 2 2 2 2 2 2 2 2 1 1 2 2 1 2 2 2 2 2 2 2 2 2 2 2 2 2 2 2 2 2 2 2 1 2 2 2 2 2 2 2 2 2 2 2 2 2 2 2 2 2 2 2 2 2 2 2 2 2 2 2 2 2 2 2 2 2 2 2 1 2 1 2 2 2 2 2 2 2 2 2 2 2 2 2 2 2 2 2 2 2 2 2 2 2 2 2 1 2 1 2 1 2 2 2 2 2 2 2 2 2 2 2 2 2 2 2
left_child=2 5 12 4 7 21 11 15 48 14 26 25 83 28 34 22 44 18 63 20 94 77 56 24 57 73 85 64 86 35 170 199 33 58 82 139 55 150 39 116 118 42 101 -39 100 107 134 54 237 50 -30 52 -52 109 177 147 119 133 81 60 -29 -62 -63 176 -23 66 -66 171 69 -28 71 -71 136 -5 75 76 -75 -2 79 -79 149 182 188 -1 -55 106 87 88 -7 -90 91 92 -45 -94 -20 -19 97 -47 -99 -100 -14 102 -42 104 -104 232 126 -15 245 229 -21 112 113 -109 -48 -44 213 196 -41 197 156 -49 123 124 -123 217 -10 -74 129 -129 -131 -110 -50 244 -9 137 -12 -136 -56 140 -18 -118 -117 -54 145 146 -86 -8 -26 -81 -16 -58 153 154 -153 -111 -73 -87 -112 160 -138 -162 -134 -128 211 -120 -116 184 -158 -24 -17 -68 -40 -174 175 -175 -13 -27 179 -60 181 -181 210 -96 231 186 -179 -188 -6 190 -57 -192 214 194 -164 246 -97 200 215 248 -3 -145 -185 235 -205 206 -206 -208 -135 -202 -33 -165 -46 -25 -193 -83 -36 -65 -108 -220 221 -59 223 -223 225 -107 -227 -228 233 -22 -147 -168 -31 -126 -203 236 -152 -4 -37 -240 -149 -95 -141 -244 -11 -43 247 -196 -32
right_child=1 3 8 6 9 13 36 46 10 23 72 17 16 45 37 30 29 95 19 110 53 27 169 38 148 47 68 59 49 105 31 32 -34 -35 216 238 -38 43 172 40 41 108 115 90 212 96 114 121 132 -51 51 -53 143 84 138 189 151 220 178 -61 61 62 -64 125 65 -67 67 -69 -70 70 -72 120 127 74 -76 -77 -78 78 -80 80 -82 198 -84 -85 144 157 -88 -89 89 -91 -92 -93 93 241 183 117 -98 98 99 -101 -102 -103 103 -105 -106 224 218 111 131 155 158 -113 -114 -115 166 142 141 -119 165 -121 -122 122 -124 -125 228 -127 163 128 -130 130 -132 -133 162 208 135 -137 159 -139 -140 242 -142 -143 -144 201 -146 230 -148 240 -150 -151 203 152 -154 -155 -156 -157 168 -159 -160 -161 161 -163 193 164 -166 -167 167 -169 -170 -171 -172 -173 173 174 -176 -177 -178 185 -180 180 -182 -183 -184 202 -186 -187 187 -189 -190 -191 191 192 -194 -195 195 -197 -198 -199 -200 -201 209 234 -204 204 205 -207 207 -209 -210 -211 -212 -213 -214 -215 -216 -217 -218 -219 219 -221 -222 222 -224 -225 -226 226 227 -229 -230 -231 -232 -233 -234 -235 -236 -237 -238 -239 239 -241 -242 -243 243 -245 -246 -247 -248 -249 -250
leaf_value=0.41546194784037055 -6.8800631408691402 0.047785282773630963 -0.35114526396447965 -3.3298397254943852 4.3748834882463727 -2.0094955362924716 -1.8278754782676696 -3.3684151282677286 2.0538501798736384 1.2899430197079977 -2.4805577801119898 -4.6657905061366192 5.0918458473988073 -4.8608346012660437 2.296092751389974 -1.2239596757259998 3.5926655769348148 -4.9637693060449806 -5.029582281279982 -5.0460264614650185 -0.34269720984668273 -4.8522482977973098 -0.23613649795775951 -0.85873208889659025 -0.34821216934605648 -0.406692396375266 -0.055229641725974422 -6.2812758469000096 -3.784948691543268 3.8331798132260637 -1.769470901024051 -0.45676957614146751 -1.6756510780703637 -1.5409074775914888 0.62434456267140126 2.9897348803143169 2.3998464671341151 1.3259064569148649 0.20310379091431116 -0.26397268235961968 1.2946155206451779 -0.66292958845172023 -0.032194831652773752 -1.0916214696317912 5.3542503202283704 -6.0867524065290182 -4.5725391986323336 -2.6195044956709213 -0.33498933777213097 -3.7630205279198763 -3.7307855705162147 -3.7958109215514302 -1.8654842480119453 -0.011226826617962489 -1.30090938291229 -0.029435997299457853 -0.29660611593675229 0.38377275579879361 1.2429133415222169 -6.2795425415039068 -6.3218314034598215 -3.4382287125487432 -6.2760046923602069 -3.1645325950954271 -4.8935682246559544 -4.7845090593610493 -2.2487607192993164 -4.6739674960865694 -0.13411233733682071 0.15156783337394397 -0.024202791684203681 1.1990332398902286 -1.2976692654869773 -3.1735864448547364 -3.3044644322888601 -3.309512695899377 -0.411329772983415 -6.7982128143310554 -6.7436577940640392 -4.6006582889742065 -6.8529403414045067 0.23772190700877799 2.6171095993004592 2.0613587018125545 0.2200212249308825 2.2776016005986857 -2.5047509874616352 -2.3132270369418833 -2.0029530062819974 0.22525604933743246 -1.1220085005291174 -1.0613477119693051 -0.96489340284975578 1.8911033906798433 -2.5307007906388268 -3.4022022247314454 -6.341114621549039 -6.2026076660156253 -3.2570949874877932 -6.183841033935547 3.2834881220923529 1.6309557042369953 1.4916993500529856 1.6368035321805015 -0.2649235420005257 1.7092459338051933 0.67022911597788337 -4.5965127771550964 -0.64482005706020429 -2.6095299882155203 -4.3787553415065856 -4.5597384060130404 -4.6265328448751699 -2.045363829856695 -4.1995762272884978 -0.58505705366743377 -0.81737310512591221 -2.8997409232939138 -0.87031753760463781 2.2166622247637773 3.5653106950578235 -2.3661005338033041 -2.6203910038389009 -2.4091649191720146 -0.35379237825862875 -2.6818940887451177 2.6035090927793689 -1.1148101849989458 -1.0704093882912085 1.3559047277768455 -0.89194658497969304 -2.3608827661584928 -2.8347104729546442 3.253492284375568 -2.9242444744706155 -3.2834354209899903 -2.2498035214164043 -0.80586063137136232 -0.25488477077013177 3.8171849064443304 5.2951619880143994 -2.3683514798273806 -2.3268489533282342 -1.2147564732111418 -2.2234337096990542 -1.0936789230098876 -1.4780433993254389 -1.2831474924087525 -1.8962630438250168 -3.2524301801409039 1.957265759552463 -0.14546280384063723 -0.17129173600865949 -0.1650110586181931 1.3618564413448351 -1.4140033304691315 2.6823240886604975 1.1765176983658845 -2.9112971911559238 -2.1305800614533603 0.066006085021155222 -1.8999930563427154 -2.6394820319281687 3.9634163052428004 2.5453958918253581 -2.3106227070677519 -2.8812361010383158 -4.1701511589256492 1.6562991169561823 -1.3133050499117784 -2.1381340001219065 -1.0608408388884172 0.16011465335714406 2.4209181782473692 0.26062749756707088 0.32754826354980471 -6.3813153266906744 -0.28169928005763462 1.4296440200805665 1.4180860006447995 1.3830640503338405 -0.35178378276478234 -0.0024643958797530524 -4.6882903035481771 -3.7584712057402641 -0.32732727866712275 1.4457319727788369 -0.20170265776770457 3.4636956334114077 -0.12255514022466299 -0.10580905263240521 1.5146785080432892 -0.018985278562953078 -2.6387391837867531 -0.80735257863998422 -2.5715956908005939 -5.1116997254200474 -0.14143244390902313 -0.027924156558813806 -2.0477764193997063 1.8911917231342894 -0.22716125791723077 -3.00194772523025 0.12342458529905841 0.3954501188360155 0.31996050312601287 2.2206084040679825 0.54736414861679072 2.1441807784286202 0.36090444557368762 -1.4778584291654475 2.4595708465576176 6.450373786783473 0.20933000210084415 2.6659346020221713 1.3532969892397524 1.7617043759418829 -4.7390143946597449 2.2003215498024864 0.83187144839245342 0.30773198191391332 0.4179252401987712 0.36708584261952709 1.5152590700770698 1.5380786165595055 1.6969277346575702 3.3631902527605373 1.5736404657363892 -0.78605950393302493 -1.4440940188616516 -2.1425697473379279 -1.9785669715780962 3.0253239579317048 0.8715881496019986 -1.4813070933024088 2.3152308568849671 0.88260894549580726 0.95642386693053139 3.9847034511912582 3.3156753363179376 0.16964594445058279 1.0834249621747356 5.4895378673777868 4.3878895385858883 2.2575087916283381 0.39850893204028792 -0.2882437391281128 -2.0656196507540616 -0.56806579559694892
leaf_weight=73 75 21 33 60 70 41 40 26 161 150 31 59 156 35 154 91 44 83 57 56 41 63 73 71 76 44 70 82 98 120 41 65 217 185 33 86 111 437 34 107 289 57 90 50 37 35 51 38 40 107 77 73 83 179 115 38 62 62 155 83 56 286 54 23 38 56 160 34 85 60 72 66 33 40 58 39 195 48 73 206 42 55 204 161 100 79 42 43 33 184 61 54 41 69 49 26 37 25 125 25 45 173 69 67 281 35 25 22 51 130 41 34 23 129 38 47 59 99 53 164 42 24 29 28 39 100 319 22 38 120 24 54 45 43 20 20 22 92 162 87 215 61 47 143 43 127 56 20 43 42 89 40 62 46 226 60 126 120 74 27 105 21 36 102 75 51 85 37 83 117 186 46 29 115 27 25 24 35 100 33 42 153 63 30 33 34 144 28 272 37 26 85 24 37 59 26 39 23 139 163 94 121 29 33 32 29 114 25 153 20 85 20 187 57 40 60 168 38 112 23 71 45 53 248 32 27 117 22 43 80 39 76 82 46 24 91 52 41 234 244 56 152 34 474 42 52 50 33 43
leaf_count=73 75 21 33 60 70 41 40 26 161 150 31 59 156 35 154 91 44 83 57 56 41 63 73 71 76 44 70 82 98 120 41 65 217 185 33 86 111 437 34 107 289 57 90 50 37 35 51 38 40 107 77 73 83 179 115 38 62 62 155 83 56 286 54 23 38 56 160 34 85 60 72 66 33 40 58 39 195 48 73 206 42 55 204 161 100 79 42 43 33 184 61 54 41 69 49 26 37 25 125 25 45 173 69 67 281 35 25 22 51 130 41 34 23 129 38 47 59 99 53 164 42 24 29 28 39 100 319 22 38 120 24 54 45 43 20 20 22 92 162 87 215 61 47 143 43 127 56 20 43 42 89 40 62 46 226 60 126 120 74 27 105 21 36 102 75 51 85 37 83 117 186 46 29 115 27 25 24 35 100 33 42 153 63 30 33 34 144 28 272 37 26 85 24 37 59 26 39 23 139 163 94 121 29 33 32 29 114 25 153 20 85 20 187 57 40 60 168 38 112 23 71 45 53 248 32 27 117 22 43 80 39 76 82 46 24 91 52 41 234 244 56 152 34 474 42 52 50 33 43
internal_value=0 -16.5491 49.2976 -2.59478 7.79996 -71.5858 -28.8415 -11.9832 19.4823 20.4059 28.0537 -36.4135 78.7687 -51.3435 34.3564 -4.43466 83.6799 -49.7837 -44.5983 -37.7907 -30.8411 -93.4403 13.5177 9.86748 22.4737 -17.6885 37.8708 -84.3345 -38.1894 77.547 -13.5065 -9.47893 -4.83843 0.643851 56.1935 83.1269 16.9237 23.3568 3.54514 0.498933 3.83118 7.47461 12.3178 15.1549 110.419 -80.0409 -56.5798 -8.27002 -25.1532 -47.6451 -42.8715 -36.6967 -30.306 -21.8597 -0.96944 7.49986 21.4151 28.0497 6.77066 -96.7033 -91.6872 -84.6596 -77.7787 -77.827 -66.8562 -61.1619 -54.2065 -47.2929 23.06 27.2759 31.7005 37.8472 -8.28941 -37.1262 -31.8002 -24.5419 -17.63 -111.39 -106.606 -100.502 -94.6318 -2.78682 65.2842 30.9579 -14.0016 46.5056 -18.1754 -13.7215 -8.29765 -2.27192 3.52551 7.85313 12.8862 19.5119 -77.3813 -79.9094 -94.2879 -88.5557 -81.9198 -74.8977 93.7398 18.0762 14.5126 6.62588 1.62764 59.3577 49.8896 -65.5593 -16.583 -35.605 -79.2447 -60.2324 -54.1822 -48.3411 -66.649 -15.191 -19.4946 -70.1083 -18.2193 33.93 44.4369 -24.881 -19.8794 -14.6387 -8.45945 -64.7275 53.3398 2.80822 7.46083 14.0694 19.6253 -30.5473 -32.5576 38.9828 -36.1863 -30.0444 -21.0571 -23.6829 -13.7831 91.221 100.119 -32.1157 -29.1191 -21.1096 -20.758 -17.5917 -7.79081 -15.3927 -18.1518 -87.4466 34.8051 12.1725 15.1738 18.8699 22.7038 -44.6399 40.3332 32.2726 -68.6896 -15.9989 -11.1439 -5.23321 -36.1741 57.166 65.4177 -31.5324 -61.9469 -58.3205 45.4972 -17.9889 -36.7562 -39.6699 26.5374 30.4362 35.1654 40.942 -103.237 11.4845 16.0115 12.7266 4.47918 -0.755493 -14.5975 -65.1314 -53.5367 15.0663 18.6163 23.5509 73.0039 18.122 21.6958 26.5347 31.5341 -32.3425 -28.6367 -23.4611 -88.558 23.1317 7.11741 -34.8796 27.5546 -16.4408 -77.1882 31.1234 25.1365 28.8767 32.6886 38.3933 47.751 32.4544 -20.7077 74.3377 125.386 -7.66221 37.6616 16.3952 31.4995 -82.9071 35.2906 39.3436 19.1937 21.4628 23.9333 26.9345 50.0406 53.1099 57.1 61.599 -1.17272 -21.4179 -26.8021 -49.1026 70.1048 6.18709 -8.69488 37.1361 31.2188 7.46637 70.871 72.8638 -4.25336 26.7119 87.3479 89.2324 30.032 -3.1311 -18.3396 -25.1738 -23.0893
internal_weight=0 14847 4995 11844 8484 3003 3360 3302 2483 5182 2083 2883 2512 1559 2230 2824 2278 1682 1435 1191 1020 1444 948 2952 986 1201 1640 958 1069 1853 1876 1599 1352 1135 747 1418 477 1483 1966 1736 1488 1277 1063 864 425 490 478 809 400 726 619 521 448 855 562 366 758 867 950 561 478 396 340 244 397 334 278 240 604 519 449 377 443 392 332 274 235 486 411 338 290 467 546 234 544 1036 343 301 258 217 427 366 312 262 165 247 247 210 175 150 201 879 706 417 350 435 837 243 214 311 171 208 174 151 320 184 248 164 211 322 317 247 209 180 152 161 677 237 204 166 144 105 326 388 158 132 206 112 277 854 259 120 94 371 365 322 156 116 119 248 619 436 374 312 266 190 275 199 115 175 148 126 286 516 197 104 269 231 209 190 277 206 230 196 167 140 83 285 483 383 228 186 213 108 194 241 207 172 342 250 213 175 149 241 204 168 65 158 254 247 135 288 59 465 233 200 171 139 196 114 150 122 224 128 125 115 201 61 160 135 479 408 346 293 233 201 166 139 128 121 166 161 202 85 145 232 141 74 564 478 76 221 595 508 192 109 142 92 84
internal_count=19842 14847 4995 11844 8484 3003 3360 3302 2483 5182 2083 2883 2512 1559 2230 2824 2278 1682 1435 1191 1020 1444 948 2952 986 1201 1640 958 1069 1853 1876 1599 1352 1135 747 1418 477 1483 1966 1736 1488 1277 1063 864 425 490 478 809 400 726 619 521 448 855 562 366 758 867 950 561 478 396 340 244 397 334 278 240 604 519 449 377 443 392 332 274 235 486 411 338 290 467 546 234 544 1036 343 301 258 217 427 366 312 262 165 247 247 210 175 150 201 879 706 417 350 435 837 243 214 311 171 208 174 151 320 184 248 164 211 322 317 247 209 180 152 161 677 237 204 166 144 105 326 388 158 132 206 112 277 854 259 120 94 371 365 322 156 116 119 248 619 436 374 312 266 190 275 199 115 175 148 126 286 516 197 104 269 231 209 190 277 206 230 196 167 140 83 285 483 383 228 186 213 108 194 241 207 172 342 250 213 175 149 241 204 168 65 158 254 247 135 288 59 465 233 200 171 139 196 114 150 122 224 128 125 115 201 61 160 135 479 408 346 293 233 201 166 139 128 121 166 161 202 85 145 232 141 74 564 478 76 221 595 508 192 109 142 92 84
cat_boundaries=0 1 2 3 4 5 6 7 8 9 10 11 12 13 14 15 16 17 18 19 20 21 22 23 24 25 26 27
cat_threshold=1 8 8 4 8 2 8 4 2 8 2 4 2 4 2 2 2 4 4 4 8 4 4 4 8 8 8
shrinkage=0.05


Tree=2
num_leaves=250
num_cat=21
split_feature=3 2 0 0 2 2 2 1 2 1 0 0 2 1 3 3 0 3 3 3 0 1 0 1 2 3 2 0 4 5 5 4 1 0 3 1 4 4 5 5 4 4 5 5 3 1 3 1 3 2 5 5 4 4 1 0 4 4 5 5 5 5 4 4 0 3 3 0 4 5 5 4 4 4 5 5 0 2 4 4 4 5 5 0 5 5 4 4 5 5 4 4 5 5 4 2 4 0 4 4 5 5 5 5 4 4 5 5 4 4 4 5 5 4 5 5 3 0 2 1 4 5 4 2 4 5 2 5 5 4 4 4 5 4 1 2 2 4 5 5 5 4 4 3 1 4 5 4 1 0 2 1 3 0 1 2 0 0 5 4 4 5 1 1 2 4 5 5 4 0 1 0 2 2 1 5 5 4 4 2 2 0 0 5 5 5 4 3 0 5 5 4 4 1 2 5 4 0 0 1 3 5 5 4 5 1 0 4 4 4 4 3 2 2 0 1 2 5 4 3 1 5 1 1 4 5 5 1 3 5 4 5 5 0 0 5 4 0 5 4 5 4 4 5 5 4 2 2 0
split_gain=1.4398e+07 1.0547e+07 3.94659e+06 2.99961e+06 1.91098e+06 1.23364e+06 1.06367e+06 985587 842842 701302 670540 646167 546275 529851 490573 420942 388636 283453 237701 213333 199021 191374 186161 177316 166208 158571 157933 156054 153162 162308 204306 198834 137937 132413 121449 112325 107285 117604 128540 177548 102612 124282 136191 157458 101552 98469.8 123054 98966.1 91658.4 91261.7 88858 108859 120248 153648 82005.1 79846.9 75533.8 96242.5 101704 141394 74292.3 94879.2 111420 134801 72832.7 72400.8 71763.1 67682.9 63742 68258 87696 89804.9 59462 78020.6 80404.1 71659 57513.5 57350.5 55953.6 52410.1 63373.7 68712.5 85582.5 51497.5 50911.1 64987.6 75372.7 86449 50578.1 58344.3 67982.6 87326.4 50220.3 67499.7 61283.4 49723.4 48001.3 47353.9 44498 57979.6 50109 63137.6 43977.2 43902.7 50854.5 42991.4 48373.2 57424.6 61128.4 41071.4 40966.1 48555.7 63863.2 39276.5 42249.8 43314.9 38446.1 37481.9 37259.3 36474.5 34441.8 36320.8 44128.8 33637.8 33561.7 33548.9 32945.8 32881.1 64329.4 57359.3 37361.1 32622.6 31816.5 35307.8 31620.5 31356 31266.8 31026.2 33691.8 30564.9 33316.9 32897.5 34205.2 30413.7 29560.3 28998.7 27149 28169.9 27146.8 26760 26345.6 26193.1 26006.6 25920.7 35580.1 25839.8 37166.9 24327 23559.8 30208.9 39786.9 42834.1 23125.2 22892.3 22150.3 21718.5 21433.2 25047.5 24223.8 21205.3 20733.8 20538.3 20498.7 20005.2 19995.7 19634.7 21427.6 24192.1 31605.4 19431.8 19113.7 21114.7 18200.9 17858.2 17524 22846.2 24792.5 16840.7 16772.3 16603.7 31897.7 21160.9 29489.7 16544.6 16513.4 16076.2 15863.9 15528.1 15315.6 15209.7 15095 14571.9 23691 14503.2 15474.1 14426.1 14370.7 14243.7 20452.1 14109.7 15913 14080.4 14058.8 14009.7 13913.7 13659.3 13644.8 13625.8 13438.7 13330.7 12976.3 12889.7 12690.8 12680 12460.1 14244.7 17949.5 12326.2 15561.1 12104.6 13167.5 11930 15647.1 11844.2 11838.8 11818.9 11674.8 11488.3 11477.3 11784 14320.6 14930.9 11397.7 12685.2 16559.3 16526.1 11369.1 11304.8 11206.1
threshold=0 68.895000000000024 0.94850000000000012 0.95950000000000013 70.565500000000014 68.010000000000005 72.006000000000014 0.35650000000000009 68.164500000000018 0.34850000000000003 0.97850000000000015 0.97850000000000015 68.895000000000024 0.35050000000000009 1 2 0.91100000000000014 3 4 5 0.95850000000000013 0.35250000000000009 0.94350000000000012 0.35050000000000009 70.086000000000027 6 73.133000000000024 0.94100000000000017 -100972.49999999999 -100972.49999999999 100972.50000000001 115625.50000000001 0.34450000000000003 0.9295000000000001 7 0.34850000000000003 100972.50000000001 -100972.49999999999 115625.50000000001 -100972.49999999999 -100972.49999999999 100972.50000000001 115625.50000000001 -100972.49999999999 8 0.35650000000000009 9 0.3625000000000001 10 70.607000000000014 -100972.49999999999 100972.50000000001 115625.50000000001 -100972.49999999999 0.34750000000000009 0.95850000000000013 100972.50000000001 -100972.49999999999 115625.50000000001 -100972.49999999999 -100972.49999999999 100972.50000000001 -100972.49999999999 115625.50000000001 0.94450000000000012 11 12 0.97450000000000014 100972.50000000001 -100972.49999999999 100972.50000000001 -100972.49999999999 100972.50000000001 -100972.49999999999 115625.50000000001 -100972.49999999999 0.9285000000000001 72.53700000000002 -100972.49999999999 -100972.49999999999 100972.50000000001 -100972.49999999999 115625.50000000001 0.93750000000000011 100972.50000000001 -100972.49999999999 -100972.49999999999 115625.50000000001 -100972.49999999999 100972.50000000001 115625.50000000001 -100972.49999999999 -100972.49999999999 100972.50000000001 115625.50000000001 67.313000000000017 100972.50000000001 0.97350000000000014 -100972.49999999999 100972.50000000001 -100972.49999999999 115625.50000000001 100972.50000000001 -100972.49999999999 -100972.49999999999 100972.50000000001 -100972.49999999999 100972.50000000001 -100972.49999999999 100972.50000000001 -100972.49999999999 115625.50000000001 -100972.49999999999 -100972.49999999999 -100972.49999999999 -59148.249999999993 13 0.97150000000000014 71.188500000000019 0.35650000000000009 -100972.49999999999 -100972.49999999999 100972.50000000001 70.748000000000005 -82020.101562499985 94270.101562500015 69.893500000000017 36075.599609375007 100972.50000000001 82020.101562500015 115625.50000000001 134648.50000000003 -100972.49999999999 -100972.49999999999 0.35150000000000009 69.936000000000021 73.809500000000014 -100972.49999999999 -100972.49999999999 -100972.49999999999 100972.50000000001 -100972.49999999999 94270.101562500015 14 0.34750000000000009 -100972.49999999999 100972.50000000001 115625.50000000001 0.34750000000000009 0.92200000000000004 70.582000000000008 0.35250000000000009 15 0.92600000000000016 0.34450000000000003 71.183500000000024 0.9305000000000001 0.98700000000000021 59148.250000000007 59148.250000000007 -59148.249999999993 -59148.249999999993 0.35450000000000004 0.34150000000000008 71.058500000000024 -100972.49999999999 -100972.49999999999 100972.50000000001 115625.50000000001 0.92200000000000004 0.34750000000000009 0.93250000000000011 70.044500000000014 70.213000000000008 0.34950000000000003 -100972.49999999999 100972.50000000001 -100972.49999999999 115625.50000000001 67.723000000000027 73.949000000000012 0.96400000000000008 0.95750000000000013 100972.50000000001 100972.50000000001 -100972.49999999999 115625.50000000001 16 0.99800000000000011 59148.250000000007 -36075.599609374993 82020.101562500015 -59148.249999999993 0.34750000000000009 69.19850000000001 -100972.49999999999 59148.250000000007 0.88900000000000012 0.96650000000000014 0.35050000000000009 17 100972.50000000001 82020.101562500015 59148.250000000007 59148.250000000007 0.34950000000000003 0.89800000000000002 36075.599609375007 -36075.599609374993 -100972.49999999999 -59148.249999999993 18 70.213000000000008 71.011500000000012 0.97150000000000014 0.34750000000000009 73.489500000000007 -82020.101562499985 100972.50000000001 19 0.34950000000000003 -100972.49999999999 0.34750000000000009 0.35150000000000009 -100972.49999999999 -100972.49999999999 115625.50000000001 0.34750000000000009 20 -59148.249999999993 -59148.249999999993 -36075.599609374993 36075.599609375007 0.97150000000000014 0.98700000000000021 -82020.101562499985 -59148.249999999993 0.95750000000000013 -100972.49999999999 -100972.49999999999 100972.50000000001 115625.50000000001 100972.50000000001 100972.50000000001 -100972.49999999999 -100972.49999999999 69.936000000000021 69.936000000000021 0.96550000000000014
decision_type=1 2 2 2 2 2 2 2 2 2 2 2 2 2 1 1 2 1 1 1 2 2 2 2 2 1 2 2 2 2 2 2 2 2 1 2 2 2 2 2 2 2 2 2 1 2 1 2 1 2 2 2 2 2 2 2 2 2 2 2 2 2 2 2 2 1 1 2 2 2 2 2 2 2 2 2 2 2 2 2 2 2 2 2 2 2 2 2 2 2 2 2 2 2 2 2 2 2 2 2 2 2 2 2 2 2 2 2 2 2 2 2 2 2 2 2 1 2 2 2 2 2 2 2 2 2 2 2 2 2 2 2 2 2 2 2 2 2 2 2 2 2 2 1 2 2 2 2 2 2 2 2 1 2 2 2 2 2 2 2 2 2 2 2 2 2 2 2 2 2 2 2 2 2 2 2 2 2 2 2 2 2 2 2 2 2 2 1 2 2 2 2 2 2 2 2 2 2 2 2 1 2 2 2 2 2 2 2 2 2 2 1 2 2 2 2 2 2 2 1 2 2 2 2 2 2 2 2 1 2 2 2 2 2 2 2 2 2 2 2 2 2 2 2 2 2 2 2 2
left_child=2 5 12 4 7 19 11 15 55 14 23 17 95 25 26 21 49 40 27 88 79 54 35 97 98 96 83 155 193 215 31 66 65 149 84 153 37 170 39 174 233 42 43 -42 221 46 64 -47 137 119 -27 52 53 -52 135 237 57 -29 59 -59 -22 62 -62 -64 151 -8 76 139 69 -36 71 -71 73 -25 75 -75 203 132 -12 -21 81 -81 182 169 85 -26 -87 234 -2 90 91 -90 -80 94 123 -1 102 113 -13 100 -100 -102 103 -7 -105 106 -46 108 -108 110 -69 112 -112 -10 -115 -116 -49 134 -24 -14 -34 -122 125 196 -117 157 -77 129 130 194 -129 -131 -48 -134 143 183 236 -9 -139 -15 141 -141 -143 -41 152 -50 147 158 -55 -16 200 171 -38 154 -18 -11 -157 -123 159 160 -135 -162 -23 -57 205 -165 -147 168 -168 -6 172 -20 -19 -146 187 -56 177 -177 223 -93 181 -128 -83 -3 185 -167 -187 -39 -125 190 -68 192 -192 247 -126 219 -94 -51 211 -173 -73 202 -37 204 229 -119 -199 208 -78 -197 -211 -150 -172 -176 -45 -30 -155 -212 224 -151 -97 -35 246 -179 -120 -226 -227 228 -40 -31 -231 -183 -233 -5 -88 -223 -61 -4 -28 -240 241 -241 243 244 -66 -246 -32 -17 -136
right_child=1 3 8 6 9 13 32 48 10 18 78 24 16 67 33 28 22 36 45 20 60 162 118 72 34 50 238 56 29 30 222 -33 120 44 68 201 144 38 227 117 41 -43 -44 214 105 47 77 116 145 197 51 -53 -54 148 175 163 -58 58 -60 136 61 -63 63 -65 242 -67 189 109 -70 70 -72 150 -74 74 -76 126 207 -79 92 80 -82 82 -84 -85 -86 86 87 -89 89 -91 -92 179 93 -95 -96 220 -98 -99 99 -101 101 -103 -104 104 -106 -107 107 -109 -110 -111 111 -113 -114 114 115 124 -118 164 218 -121 121 122 -124 188 127 -127 180 128 -130 131 -132 -133 133 146 248 -137 -138 138 -140 140 -142 142 -144 -145 173 166 -148 -149 198 195 -152 -153 -154 216 -156 156 -158 -159 -160 -161 161 -163 -164 165 -166 184 167 -169 -170 -171 212 199 -174 -175 213 176 -178 178 -180 -181 -182 231 -184 -185 -186 186 -188 -189 -190 -191 191 -193 -194 -195 -196 209 -198 206 -200 -201 -202 -203 -204 -205 -206 -207 -208 -209 -210 210 217 -213 -214 -215 -216 -217 -218 -219 -220 -221 -222 235 -224 -225 225 226 -228 -229 -230 230 -232 232 -234 -235 -236 -237 -238 -239 239 240 -242 -243 -244 -245 245 -247 -248 -249 -250
leaf_value=0.40024953078453063 -6.5719285163326546 1.349963331906884 -0.34318450721534521 -3.1473380945496641 4.1901699573178837 -1.8902129780162467 -1.2713118513425192 -3.269520690917969 1.5113762882483357 0.21924576218021505 -1.736624988869055 -5.4868533686587684 4.8759269667606731 -4.5636206272670199 2.2375766589473454 -1.7302820809682211 3.8952229488043137 -1.931864527109507 2.7514324444096268 -4.5473411941528319 -6.0251300949648208 -0.078661148443624582 3.2673708849216823 -0.066077338695964397 -4.9344414181179479 -3.6120736196929339 0.58395100891590113 -1.8850535297393798 -1.1195492643910119 -0.36499248163120168 -1.6574556636810305 -1.470564461272696 0.27893404469770544 0.58440603897685095 -3.2253105314951096 3.4055798436581406 -0.28368656402680931 -0.39929638419832503 -0.36828865176066761 1.389659646016951 -3.3509445161085867 -3.4668373543283217 -3.6089154288882299 -0.39657436430454257 -1.0694255399107933 -0.9712437972529181 -0.57991206086362179 0.080251125953136354 -4.2752100112590385 5.0946789571642874 -3.5295689476860894 -3.5636655807495119 -3.5948557879473713 -1.8131709378442649 -0.21891937192642327 -0.35595714095476511 -1.9170059973994893 -1.8994545445075404 -1.9036321163177492 1.1219859404223305 -6.0320610415550977 -5.9531751586169737 -3.265678484947673 -5.9165244727299138 0.37513616232843888 0.60227881633874147 1.1755240408466168 -5.7613605614864474 -3.3199507236480716 -3.1307615831163194 -3.1469242157474646 -2.0947540376244524 -0.10785809895673465 0.17939241094831027 -0.11492026785735864 1.1717814287772546 0.70691798676441353 1.2455130648850208 -1.6081152295837038 -4.6277545527407993 -4.5154755274454752 -2.1782358028270581 -4.4315422337229657 2.4691672910558116 -4.9862150995354906 -4.9817656653268001 -1.132638455206348 -4.8996100107828777 -6.4185005619840814 -6.431198926653181 -6.5800988956373558 -4.3763931562315745 -0.11166927656348871 -1.5094871853079115 -1.3749566275899003 2.4129433800534503 -2.3791611938476565 1.0442263800923417 -5.3332834472656252 -5.6129946800970263 -2.4888624002063087 -5.4501302628290089 -2.1652133118022574 -1.865379073884752 0.19812730759807995 -1.0370493143796922 -0.88693934082984927 -0.97732697625954956 1.2417507672623929 -6.0119655160342944 -5.8247673950195313 -5.8453507496760446 -3.0653358547504133 1.5691794328576278 3.4677743990006658 3.6014968152316116 2.2603782358623685 -0.098084165193140505 1.5743205808824108 3.1630070197276581 0.23224911703169349 3.6838773398563784 0.34420374488830568 1.7430515029762366 0.43017474496087371 0.78465768496195487 2.7565904541015627 3.6405458676281266 1.7283918231980415 4.036530579460992 1.8643132547014638 1.9618317714706064 -0.4936483783854379 1.5889707925026877 0.2228323349047725 2.1266842341121239 2.0072201182379534 -3.0875011609948202 -0.98158211210452095 -4.3900678717571759 -4.3295532650417758 -1.9988447037418333 -4.1962973276774092 0.33331409659184202 -3.7489541426948882 -4.0878499058314732 -0.2706295828276043 -0.18706459256186003 -0.99282541385740053 1.4929230423534618 -0.31459477487244186 1.1838693092882107 -2.0539348420642671 4.2069858546593819 5.1760550719935727 1.6912316728521277 0.29355937312631047 2.2478393077850343 1.7042321103413902 1.7258104620308712 1.4455557725259238 -0.3964098103813769 -1.1963394583813076 -2.7134976143060729 0.4174241460504986 -2.5073932339163392 -2.2901928427690517 -3.9606367059656096 -3.7041848260003167 3.263323059149668 -3.2736777347067125 2.153607171820116 -0.27849011805496721 -2.0709591156397109 -3.3507297595342003 -0.19301826607849865 -0.12051372537389399 1.5382649223506453 -0.17063166356899523 -3.1748794364929203 3.4383740997314458 2.5482261180877686 -1.0415573315819104 -0.15729196486265765 -2.5302529961722242 -0.83123813462855467 -2.4545859200613842 -1.9617271773955403 0.12215583801269532 1.329239264011383 1.3532759413999671 1.2829485166072847 -0.2708978813948289 -2.0209548532293087 1.5918748975362418 0.87520538934490144 1.2775990082667423 7.094013088771276 -1.6357032515785912 1.276073326021433 -0.78837719307048248 2.7955308255695162 4.7074154703240643 0.14871820986270906 0.019754422807859051 -1.0335599147572239 5.9773724591073822 0.91189978364212765 -0.37358128477601293 2.4720187526638226 2.5782981046040856 -0.23294723454643701 -1.8784882971218655 -1.829679582177139 -1.0673848970952104 -1.9247715258900122 3.2712516148885094 1.4520005947060781 1.4337604413713727 0.11236364014006944 1.5387214758179404 2.309280954996745 -1.8510400227577457 0.73539375251578831 1.6120812945895726 3.112115017706607 1.5862947920094366 -2.3374370237497182 -2.0894555289169836 -0.36220997228570612 -1.7178092756389098 0.68402364473593869 2.1846387542784216 -4.3083215005057198 -2.1097459670036072 1.2744836142503244 0.31336813800714236 0.89457370007508674 0.61329199224710473 2.2593341427029308 0.71287367582321171 0.76986836552619931 0.32240318384240657 0.31911395064186898 0.41525791452287647 1.4346622829982421 -0.44975857593511281 -0.58969242771466568 -0.77374655358320066
leaf_weight=73 69 135 37 59 79 44 75 25 136 162 67 38 153 35 156 45 81 37 82 60 83 77 199 85 36 102 30 90 79 37 40 184 34 63 63 435 41 35 24 131 65 92 63 200 50 145 92 39 47 40 72 96 74 81 66 37 96 65 66 56 62 82 277 58 61 165 149 33 72 45 62 41 86 53 59 65 82 201 52 38 54 162 41 202 38 28 62 24 53 70 49 212 98 56 41 82 50 82 25 31 126 21 44 36 175 64 40 48 215 34 25 26 130 121 115 53 42 80 31 39 25 58 25 79 43 21 100 134 117 36 38 40 90 57 82 158 38 23 109 23 36 113 21 142 23 35 79 69 125 34 158 113 42 538 164 108 85 60 75 58 42 127 116 43 84 34 167 37 37 282 23 129 38 78 24 45 64 160 44 40 40 31 45 23 35 147 28 34 20 100 34 40 157 178 106 57 26 35 44 80 48 84 38 40 36 85 163 87 94 59 30 119 84 41 126 158 42 256 35 36 88 30 155 71 27 119 23 65 29 23 81 38 32 35 62 344 220 38 24 106 25 20 68 56 47 258 38 42 43
leaf_count=73 69 135 37 59 79 44 75 25 136 162 67 38 153 35 156 45 81 37 82 60 83 77 199 85 36 102 30 90 79 37 40 184 34 63 63 435 41 35 24 131 65 92 63 200 50 145 92 39 47 40 72 96 74 81 66 37 96 65 66 56 62 82 277 58 61 165 149 33 72 45 62 41 86 53 59 65 82 201 52 38 54 162 41 202 38 28 62 24 53 70 49 212 98 56 41 82 50 82 25 31 126 21 44 36 175 64 40 48 215 34 25 26 130 121 115 53 42 80 31 39 25 58 25 79 43 21 100 134 117 36 38 40 90 57 82 158 38 23 109 23 36 113 21 142 23 35 79 69 125 34 158 113 42 538 164 108 85 60 75 58 42 127 116 43 84 34 167 37 37 282 23 129 38 78 24 45 64 160 44 40 40 31 45 23 35 147 28 34 20 100 34 40 157 178 106 57 26 35 44 80 48 84 38 40 36 85 163 87 94 59 30 119 84 41 126 158 42 256 35 36 88 30 155 71 27 119 23 65 29 23 81 38 32 35 62 344 220 38 24 106 25 20 68 56 47 258 38 42 43
internal_value=0 -15.474 46.8343 -2.13995 7.78194 -68.5426 -27.5196 -11.0011 18.325 19.6619 26.5131 -34.6601 74.874 -48.796 33.0038 -3.91309 79.7469 -23.926 9.64207 -89.4158 -80.7475 13.1343 73.346 35.9594 -55.5258 -36.3697 53.5156 -3.07549 -12.6137 -8.95538 -4.79508 0.702084 16.9735 22.3742 -48.0888 79.0198 -15.2496 -11.4502 -6.75714 -2.10927 -41.0754 -35.8215 -29.0299 -22.0776 14.2685 15.8806 18.3718 -3.78448 -52.9089 106.78 -44.9187 -40.3575 -34.5946 -28.3352 20.2252 -23.7236 -12.5117 -7.8771 -1.84529 4.46343 -92.882 -88.096 -81.6997 -74.4926 26.6585 0.335635 6.47381 -76.5201 -38.9226 -34.1785 -28.7812 -21.5286 22.1423 26.2969 31.9131 37.5356 -2.17218 10.048 -8.1304 -63.6984 -58.8899 -52.9575 -46.8901 62.1688 -66.0179 -59.9762 -52.0577 -43.0566 -106.33 -102.244 -97.028 -91.4735 -3.33916 1.3446 8.03371 29.8343 -18.9042 43.9303 -78.3307 -72.4517 -65.2769 -58.238 -14.1084 -9.07065 -3.0788 3.10526 7.42866 12.184 18.1568 -87.9535 -82.824 -76.9162 -70.2081 45.9428 48.6044 51.6597 24.2137 4.75244 55.2786 90.5598 34.8797 40.1507 45.5632 14.5667 48.0706 52.5199 43.4154 45.6001 52.6574 36.5355 64.9624 58.8917 5.71227 8.37988 10.7727 32.5724 13.2514 -33.0883 -26.9705 -64.0837 -59.1531 -52.8616 -46.8644 16.8041 -37.5714 -62.543 11.62 14.7639 -20.0901 33.3969 -14.0432 36.5988 -23.5895 86.4276 95.0519 13.6971 21.5135 59.0738 18.3206 14.1576 8.9328 1.22714 -15.0085 -30.5297 -4.87034 -33.5478 -58.633 -55.2747 -50.933 69.323 -34.6318 41.6164 -21.8831 -49.0615 -35.2401 11.5547 14.2932 17.6339 21.1511 -83.7135 48.8042 44.8314 -38.6226 22.6111 -29.896 -26.4279 -21.8195 -23.3838 28.312 15.1198 12.1027 4.74445 0.364441 -34.8951 25.1324 29.6441 3.59258 119.865 -15.5413 36.3542 -27.8038 68.0479 70.2033 -14.2229 -18.1093 -11.5999 123.495 7.77079 2.59666 32.0794 34.4875 -12.4446 -43.5678 -47.826 -13.1169 -33.1273 82.7845 31.4029 46.7522 15.6584 39.2081 24.9207 -31.7854 25.8299 49.9157 53.2962 57.2995 -37.5198 -26.2012 -22.8338 -28.3603 34.6329 27.4004 -71.5924 -32.4238 27.1498 9.54871 5.67893 29.7508 32.8489 36.1203 40.4582 18.4627 20.3988 22.5433 25.5515 -21.3818 -23.5931 -2.39982
internal_weight=0 14905 4937 11912 8564 2993 3348 3318 2448 5246 2049 2885 2489 1538 2250 2838 2246 1905 2996 1455 962 959 1816 1610 980 1062 768 986 1879 1614 1377 1144 463 1482 739 1382 1265 1081 899 781 640 546 454 391 854 2010 1784 226 480 430 713 611 515 441 766 399 631 535 445 379 562 479 397 335 894 240 960 476 489 417 354 292 589 503 418 359 480 890 439 400 340 286 248 563 250 212 176 148 493 424 354 305 372 320 264 243 349 1021 241 203 172 147 299 255 211 417 353 303 255 248 214 181 155 939 803 682 81 647 434 192 223 189 164 223 567 139 306 514 289 225 172 76 689 597 398 316 314 157 132 228 193 157 134 273 184 323 507 428 369 628 247 404 83 825 245 355 193 118 359 284 226 169 193 324 249 287 276 241 204 361 182 291 75 101 134 450 384 320 275 252 241 201 207 158 244 209 175 69 99 480 380 231 191 265 149 472 124 238 288 209 89 557 473 217 177 165 198 263 176 402 345 244 107 65 326 237 580 286 235 70 170 437 233 231 200 169 142 118 53 141 104 101 70 94 124 374 276 75 205 175 151 126 490 422 366 305 78 87 125
internal_count=19842 14905 4937 11912 8564 2993 3348 3318 2448 5246 2049 2885 2489 1538 2250 2838 2246 1905 2996 1455 962 959 1816 1610 980 1062 768 986 1879 1614 1377 1144 463 1482 739 1382 1265 1081 899 781 640 546 454 391 854 2010 1784 226 480 430 713 611 515 441 766 399 631 535 445 379 562 479 397 335 894 240 960 476 489 417 354 292 589 503 418 359 480 890 439 400 340 286 248 563 250 212 176 148 493 424 354 305 372 320 264 243 349 1021 241 203 172 147 299 255 211 417 353 303 255 248 214 181 155 939 803 682 81 647 434 192 223 189 164 223 567 139 306 514 289 225 172 76 689 597 398 316 314 157 132 228 193 157 134 273 184 323 507 428 369 628 247 404 83 825 245 355 193 118 359 284 226 169 193 324 249 287 276 241 204 361 182 291 75 101 134 450 384 320 275 252 241 201 207 158 244 209 175 69 99 480 380 231 191 265 149 472 124 238 288 209 89 557 473 217 177 165 198 263 176 402 345 244 107 65 326 237 580 286 235 70 170 437 233 231 200 169 142 118 53 141 104 101 70 94 124 374 276 75 205 175 151 126 490 422 366 305 78 87 125
cat_boundaries=0 1 2 3 4 5 6 7 8 9 10 11 12 13 14 15 16 17 18 19 20 21
cat_threshold=1 8 8 2 2 4 8 2 4 8 2 2 4 8 8 8 8 8 4 4 8
shrinkage=0.05


Tree=3
num_leaves=250
num_cat=22
split_feature=3 2 0 0 2 2 2 1 2 0 0 2 0 1 3 3 3 0 1 3 0 1 0 1 2 3 1 4 5 5 4 3 1 3 4 4 5 5 1 1 5 5 4 4 4 4 5 5 4 4 5 5 3 2 5 5 4 4 1 1 0 3 3 0 1 0 4 5 5 4 4 4 5 5 0 3 4 3 4 4 5 5 0 5 5 4 4 5 5 4 2 0 4 4 4 5 5 5 5 4 3 4 5 5 4 1 4 4 5 5 2 2 1 0 4 5 4 2 2 2 5 0 2 5 4 4 5 2 4 5 5 5 4 4 0 4 1 2 0 1 5 4 4 5 1 3 0 0 1 1 4 0 3 2 2 5 5 4 4 4 4 5 5 4 4 2 0 2 0 4 5 5 5 4 4 0 5 5 4 4 1 5 1 3 5 3 4 2 0 0 1 2 5 3 0 4 4 4 2 5 5 1 0 2 1 2 2 4 5 1 0 1 1 1 1 4 4 5 5 5 5 4 4 2 2 5 4 0 0 1 3 4 4 4 4 5 5 5 5 1 3 2 5 0 3 2 2 5 5
split_gain=1.29942e+07 9.51871e+06 3.5618e+06 2.71065e+06 1.61284e+06 1.11336e+06 1.02881e+06 889492 760664 650258 605163 493013 491679 478191 465009 379900 352737 350744 324634 214976 196476 172715 168011 160028 150003 143110 141501 138229 146483 184386 179448 133973 124488 109607 109186 131667 145470 198926 101373 98037.2 94653 120762 130303 181032 92257.5 98851 110853 149580 86691.7 98856.5 112193 127043 82721.7 82363.7 80194.3 98245.7 108524 138667 79979.4 74009.6 72061.8 65341.7 64766.2 61083.8 59527.4 61812.8 57527.1 61602.8 79145.6 81048.9 53664.5 70413.6 72564.7 64672.3 51905.9 51891.9 50498.2 47329.6 47300 57194.8 62013 77238.2 46132.4 45947.2 58651.4 68023.8 78020.2 45323.8 60918.5 55308.3 44875.4 44104.9 43321.2 40159.4 52326.6 45223.4 56981.7 39689.4 39622.2 45896.2 39252.1 38811.9 43203.9 46974.1 52300.3 37503.3 37066.9 36971.9 43821.5 57636.6 35081.8 33626.5 32918.2 32695 31083.7 32779.5 39826.2 30882.4 30592.4 30358.1 30277.9 30220.1 29733.6 29166.2 31788.9 35486.9 38316.9 28298.8 28001.1 30406.8 27584.9 30068.5 29690 30870.2 27254.5 26171.3 24500 23776.9 23393.4 32111 23296.2 27982.5 40490.4 41066.2 23169 23480.6 21955.1 21267.4 21028.6 20870.5 20820.7 20574.4 20242.2 19990.7 19509.9 19343.4 22605.4 21862 18214.8 18082.8 17894.6 17720.3 19338.4 21833.4 28523.9 17250.2 19056 16841 16426.3 16233.3 16117 15841.2 15419.7 16895.6 20133.5 15137 14984.8 28787.7 19097.7 26614.4 14931.5 14843.1 14832.9 15180.3 14374.6 14344 14317.2 14153.2 14049 14014.2 13801.8 13816.2 13724.8 13623.2 13571.1 13337.7 15479.8 13226.8 13162.8 13151.1 21381.2 13019.6 12969.5 12904.3 12327.5 12314.5 12217.7 12128.4 12092.2 11711.1 11695.5 12275.4 11618 11453.4 11443.7 11419.8 11245.2 12855.9 16199.5 11106.8 25037.5 11094.7 14967 11074.9 10972 10938.2 10905.7 10882.3 10684.5 10643.9 10643 10599.8 15209.2 10586.2 15783 15761.3 12731.1 11417.9 12811.6 10553.5 14244.7 13537.9 10514.5 10368.2 10266.9 10260.6 10202.5 10183.3 27410.1
threshold=0 68.895000000000024 0.94850000000000012 0.96050000000000002 70.565500000000014 68.010000000000005 72.006000000000014 0.35650000000000009 68.164500000000018 0.93950000000000011 0.97850000000000015 68.895000000000024 0.97850000000000015 0.35050000000000009 1 2 3 0.91100000000000014 0.35250000000000009 4 0.95850000000000013 0.35250000000000009 0.94350000000000012 0.35050000000000009 70.086000000000027 5 0.34950000000000003 -100972.49999999999 -100972.49999999999 100972.50000000001 115625.50000000001 6 0.34450000000000003 7 100972.50000000001 -100972.49999999999 -100972.49999999999 115625.50000000001 0.34850000000000003 0.35250000000000009 -100972.49999999999 100972.50000000001 -100972.49999999999 115625.50000000001 100972.50000000001 -100972.49999999999 115625.50000000001 -100972.49999999999 -100972.49999999999 100972.50000000001 115625.50000000001 -100972.49999999999 8 70.607000000000014 -100972.49999999999 100972.50000000001 115625.50000000001 -100972.49999999999 0.3625000000000001 0.34750000000000009 0.95850000000000013 9 10 0.97450000000000014 0.3575000000000001 0.95950000000000013 100972.50000000001 -100972.49999999999 100972.50000000001 -100972.49999999999 100972.50000000001 -100972.49999999999 115625.50000000001 -100972.49999999999 0.9285000000000001 11 -100972.49999999999 12 -100972.49999999999 100972.50000000001 -100972.49999999999 115625.50000000001 0.92400000000000004 100972.50000000001 -100972.49999999999 -100972.49999999999 115625.50000000001 -100972.49999999999 100972.50000000001 115625.50000000001 67.313000000000017 0.96650000000000014 100972.50000000001 -100972.49999999999 100972.50000000001 -100972.49999999999 115625.50000000001 100972.50000000001 -100972.49999999999 -100972.49999999999 13 -100972.49999999999 -100972.49999999999 100972.50000000001 115625.50000000001 0.35650000000000009 100972.50000000001 -100972.49999999999 115625.50000000001 -100972.49999999999 71.681500000000014 71.188500000000019 0.35650000000000009 0.9295000000000001 -100972.49999999999 -100972.49999999999 100972.50000000001 68.800500000000014 73.206000000000017 70.748000000000005 94270.101562500015 0.95350000000000013 69.893500000000017 -100972.49999999999 100972.50000000001 -100972.49999999999 115625.50000000001 69.936000000000021 -100972.49999999999 -100972.49999999999 -100972.49999999999 100972.50000000001 -100972.49999999999 94270.101562500015 0.97150000000000014 -100972.49999999999 0.34750000000000009 70.582000000000008 0.92600000000000016 0.34450000000000003 59148.250000000007 59148.250000000007 -59148.249999999993 -59148.249999999993 0.35150000000000009 14 0.98700000000000021 0.92400000000000004 0.34750000000000009 0.35450000000000004 -100972.49999999999 0.97150000000000014 15 71.058500000000024 71.445500000000024 -100972.49999999999 100972.50000000001 115625.50000000001 36075.599609375007 -36075.599609374993 100972.50000000001 -100972.49999999999 100972.50000000001 -100972.49999999999 115625.50000000001 73.949000000000012 0.96400000000000008 67.53700000000002 0.95750000000000013 36075.599609375007 100972.50000000001 -100972.49999999999 -100972.49999999999 -100972.49999999999 100972.50000000001 0.99800000000000011 59148.250000000007 -36075.599609374993 82020.101562500015 -59148.249999999993 0.34750000000000009 59148.250000000007 0.35150000000000009 16 -36075.599609374993 17 59148.250000000007 71.445500000000024 0.92200000000000004 0.88900000000000012 0.34750000000000009 70.072500000000019 94270.101562500015 18 0.89800000000000002 82020.101562500015 -59148.249999999993 36075.599609375007 67.430000000000021 100972.50000000001 82020.101562500015 0.34950000000000003 0.89800000000000002 73.721500000000006 0.34750000000000009 73.489500000000007 67.430000000000021 100972.50000000001 59148.250000000007 0.34950000000000003 0.97150000000000014 0.35150000000000009 0.34450000000000003 0.34750000000000009 0.35150000000000009 -1.3501280388822343e-11 -100972.49999999999 -100972.49999999999 115625.50000000001 -36075.599609374993 36075.599609375007 36075.599609375007 -36075.599609374993 67.53700000000002 67.53700000000002 71398.250000000015 4.5004298681802755e-12 0.94550000000000012 0.98700000000000021 0.35150000000000009 19 94270.101562500015 -94270.101562499985 -36075.599609374993 -100972.49999999999 94270.101562500015 -59148.249999999993 -94270.101562499985 115625.50000000001 0.34950000000000003 20 71.058500000000024 -36075.599609374993 0.95750000000000013 21 69.936000000000021 69.936000000000021 -36075.599609374993 -100972.49999999999
decision_type=1 2 2 2 2 2 2 2 2 2 2 2 2 2 1 1 1 2 2 1 2 2 2 2 2 1 2 2 2 2 2 1 2 1 2 2 2 2 2 2 2 2 2 2 2 2 2 2 2 2 2 2 1 2 2 2 2 2 2 2 2 1 1 2 2 2 2 2 2 2 2 2 2 2 2 1 2 1 2 2 2 2 2 2 2 2 2 2 2 2 2 2 2 2 2 2 2 2 2 2 1 2 2 2 2 2 2 2 2 2 2 2 2 2 2 2 2 2 2 2 2 2 2 2 2 2 2 2 2 2 2 2 2 2 2 2 2 2 2 2 2 2 2 2 2 1 2 2 2 2 2 2 1 2 2 2 2 2 2 2 2 2 2 2 2 2 2 2 2 2 2 2 2 2 2 2 2 2 2 2 2 2 2 1 2 1 2 2 2 2 2 2 2 1 2 2 2 2 2 2 2 2 2 2 2 2 2 2 2 2 2 2 2 2 2 2 2 2 2 2 2 2 2 2 2 2 2 2 2 2 1 2 2 2 2 2 2 2 2 2 1 2 2 2 1 2 2 2 2
left_child=2 5 11 4 7 20 12 15 60 16 23 90 19 25 34 21 18 53 113 48 31 59 38 91 93 92 75 180 204 30 62 147 61 83 35 -11 -37 118 138 82 224 42 -42 77 45 210 47 239 -5 50 51 -50 128 112 -27 56 57 -56 194 127 243 -8 74 130 65 101 67 -35 69 -69 71 -25 73 -73 197 121 -12 -44 -33 80 -80 168 154 84 -26 -86 228 -78 89 119 -1 110 97 -14 95 -95 -97 98 -7 -100 -84 185 -103 104 140 -20 107 -65 109 -109 117 229 -13 187 -34 -116 120 -10 159 186 146 -16 -75 -102 125 -125 -127 170 -9 -130 -15 132 -132 -134 144 -54 230 193 139 -19 141 142 -104 -144 145 -49 -117 -2 -93 -23 -62 182 -66 201 244 -137 157 -157 233 -38 -160 -61 163 -163 214 166 -124 -152 -82 242 231 -77 -112 -174 192 -121 177 -64 179 -179 246 184 183 -46 -138 -28 -89 -6 -189 -55 191 -76 -175 -71 -41 196 -186 208 -43 200 247 -136 -191 -173 -29 -140 -45 216 215 -92 211 -21 -149 245 -165 -30 -113 -218 -219 -53 -221 222 -168 -79 -22 -131 -150 -36 -87 -24 -59 232 -3 234 -119 236 -235 -236 -239 240 -47 -241 -161 -4 -18 -31 -17 248 -40
right_child=1 3 8 6 9 13 32 52 10 14 76 17 24 63 26 27 39 22 105 44 40 149 111 70 33 54 64 28 29 213 -32 78 114 66 227 36 37 -39 199 58 41 198 43 206 151 46 -48 134 49 -51 -52 219 135 189 55 -57 -58 136 -60 161 150 -63 176 106 152 -67 -68 68 -70 137 -72 72 -74 122 190 171 87 223 79 -81 81 -83 100 -85 85 86 -88 88 -90 -91 209 148 -94 94 -96 96 -98 -99 99 -101 123 102 103 -105 -106 -107 -108 108 -110 -111 172 207 -114 -115 115 116 -118 158 -120 175 -122 -123 165 124 -126 126 -128 -129 129 225 131 -133 133 -135 153 155 181 -139 205 -141 -142 -143 143 -145 -146 -147 -148 212 226 -151 167 -153 -154 -155 -156 156 -158 -159 160 169 -162 162 -164 164 -166 -167 221 -169 -170 -171 -172 203 173 174 -176 -177 -178 178 -180 -181 -182 -183 -184 -185 195 -187 -188 188 -190 202 -192 -193 -194 -195 -196 -197 -198 -199 -200 -201 -202 -203 -204 -205 -206 -207 -208 -209 -210 -211 -212 -213 -214 -215 -216 -217 217 218 -220 220 -222 -223 -224 -225 -226 -227 -228 -229 -230 -231 -232 -233 -234 235 237 -237 -238 238 -240 241 -242 -243 -244 -245 -246 -247 -248 -249 -250
leaf_value=0.38023705390626439 -5.2181348318076992 0.29161299223249609 -0.32602531330005546 -3.5032091276986259 2.8319993725637111 -1.7957023273814809 -1.2077462449073793 -3.1060446014404297 1.8227445861961269 -1.6644762917927336 -1.6497937953294213 4.632130781497831 -5.2125105707268968 -4.3354395512172159 1.9797489617275048 -1.6437679915957979 1.0327954710771641 3.7004620069338956 1.1246758517965807 -1.0429363131523133 -6.4338677542550231 -0.074728097311862113 3.4069698536295001 -0.062773461447864332 -4.6877193239000112 -3.43146988363827 0.42915846279689246 -1.0635717997445338 -0.7539898212276106 -1.5745828914642335 -1.3970362992390344 -4.3199738279978437 0.264987353366964 -3.0640449705578034 -1.1950856264432272 -1.7106289341336205 1.0014510726227479 -1.6816169330051967 2.7553135764598848 -0.54617431344865242 -5.9408258681601671 -6.7172551406057259 -4.2123895229936457 -6.8648229810926651 -0.361784604522917 -0.55899805466334029 -1.9276118075045254 1.2397176627564219 -3.285087544577463 -3.3552172860981511 -3.5370100610906428 -0.21074079684484964 -4.0614496028169675 4.8399449437856674 -3.3530903710259334 -3.3854822993278506 -3.4151130573169604 -2.2886171201380292 1.8104727145953057 -0.20797341827754723 -2.3997012663860713 0.57216485973560449 1.1167478702212341 -5.4732921715938687 -1.7327696465157176 -0.80650218704642807 -3.1539533178011578 -2.9742234759860571 -2.9895779963462585 -1.9900163313237631 -0.10246518040292485 0.17042281221036082 -0.10917425793358836 1.113192314368028 0.24464770527986382 0.18541231318522478 -1.5277094596853624 -3.3747536437316512 -4.3963668421695106 -4.2897018997757526 -2.0693240836814599 -4.2099651383190624 1.4128506112242218 -4.7369043450606503 -4.7326773779732845 -1.07600657632274 -4.6546293894449873 -0.10608580398316286 -1.4340128302574158 -1.3062087922561461 2.2922963026093277 2.0678603152971013 -2.26020329284668 -5.0666193389892582 -5.3323450396137853 -2.3644193376813614 -5.1776238941010977 -2.0569526022130793 -1.7721102211210464 0.18822094366380149 -0.40198761539326777 -0.061708609286265884 1.8278437142843729 0.007755392595749944 0.03882295294563369 -0.3174854380389055 -5.7113673266242531 -5.5335289916992192 -5.5530831850492035 -2.9120690683218151 0.62063901662826548 1.4956045919849028 3.004856669597137 2.4070832562446594 0.22063666075468064 3.4996835379764955 0.32699355268478397 2.0131407558054164 1.5325919729535995 1.6558989796457411 0.74542479358968283 1.1348487804497942 2.6187608861923217 -0.17070319884173249 -0.31901926244609058 1.6577366712278334 -0.22482551420107486 2.0203499691395819 -2.9331260847008749 -0.62384504268441021 -4.170564469047215 -4.1130756802029085 -1.8989024567393074 -3.9864824885413763 -0.0931799478083849 -3.8834573473249168 -0.43257903109540002 -0.29886503161131583 3.9966365852320509 4.9172526254886542 1.9162981691613663 1.9018529701232911 1.7248486776200551 0.26608577018368595 -0.25185063457991708 0.24135359012014501 2.1354473996162415 -4.8600627247880155 0.55072638327255852 -1.1365225043790095 -1.6708308354182089 -2.5690103830610003 -0.067409332593282065 0.39655292999176756 1.9998196587155936 -2.1756832374070219 -3.7626047082849454 -3.5189755517083245 3.4190253060143272 0.70636510704126632 2.3890148050644817 -0.18336734469566082 -0.11448803301900626 1.4613516614958646 -0.16210008940913462 3.2664553016424183 2.0395682469010352 -0.88826542969820277 -0.9894794659482109 0.71186293204322126 -0.14942735381748365 0.89949350933201533 0.62303975562875469 2.5877326349417373 0.73396215761701278 0.11604812622070314 1.2627773171663286 1.2856121399823357 1.2188010799884799 -0.25735297848464578 -1.9199070089318782 -0.031035826557268532 -2.5685475652868099 -1.8241450527736121 -0.2346056858698527 -0.55675720404355955 1.2137190571198098 3.9806614284273945 3.164888539104342 6.7393126133510055 0.024385746708814649 1.2968213800589243 1.2509136219819388 -0.74895831742323937 0.21257913710774276 -0.14294873320538065 -1.7361144116584293 -0.085135872029896947 -5.5998394012451174 2.6557542528424944 4.4720445131000721 -0.98188195025219638 5.6785038959760605 1.665384211113204 -1.8285328771494613 3.1076891104380291 -5.5873290390264794 1.3620724187578475 0.047409739431280358 1.4617854410951789 -2.2636214174543112 -2.4120393232865767 -3.8227218120912969 -1.7584880235118252 0.69862406777191755 -1.7329135510386253 1.5314772605895997 2.9565092623734675 1.5069800542748493 -1.4058076524141212 -0.2898054303165446 2.3646884890965056 0.53297794009832777 -2.735402210688187 -5.475036412018996 -1.7453022281328838 1.5107884189215575 -2.0624899801317151 -2.0042586926491031 2.6626422199202171 -1.1422550225257875 0.25018980006376901 1.7550361218659773 2.7425249190557572 1.8763724517822267 3.1797408364035871 1.3209751392699898 3.4858489197570011 2.0925972438993909 -3.1831932942072552 -2.1130396875841866 -1.6413799585614886 -0.26791911686460179 0.84984501929659606 1.6984280618173735 -0.42727064945195847 -0.56020781869689629 3.0005063034494275 3.9299034002173041
leaf_weight=73 83 22 37 84 164 44 75 25 158 140 67 153 38 35 292 45 120 81 113 64 70 77 118 85 36 102 70 79 76 40 184 60 34 63 60 105 136 105 80 79 94 38 147 27 36 30 104 113 56 81 55 87 47 40 72 96 74 41 78 66 49 165 149 33 37 77 72 45 62 41 86 53 59 65 65 64 52 159 38 54 162 41 353 38 28 62 24 98 56 41 82 74 50 25 31 126 21 44 36 175 54 130 91 119 101 75 34 25 26 130 30 31 39 200 25 58 25 69 92 79 21 166 100 46 48 174 32 158 23 79 23 36 113 21 80 35 91 158 538 164 113 90 63 206 83 123 60 41 64 116 138 70 36 84 236 167 37 37 111 36 68 45 64 160 44 40 32 137 45 131 23 307 24 96 24 20 100 34 40 157 178 59 22 35 21 78 26 79 159 35 138 60 24 48 232 23 94 66 86 84 38 85 163 67 158 42 61 35 26 88 70 22 79 155 71 49 27 119 23 108 94 35 34 118 52 30 55 91 62 81 40 21 92 21 20 22 63 77 21 24 29 35 120 38 112 38 42 224 131
leaf_count=73 83 22 37 84 164 44 75 25 158 140 67 153 38 35 292 45 120 81 113 64 70 77 118 85 36 102 70 79 76 40 184 60 34 63 60 105 136 105 80 79 94 38 147 27 36 30 104 113 56 81 55 87 47 40 72 96 74 41 78 66 49 165 149 33 37 77 72 45 62 41 86 53 59 65 65 64 52 159 38 54 162 41 353 38 28 62 24 98 56 41 82 74 50 25 31 126 21 44 36 175 54 130 91 119 101 75 34 25 26 130 30 31 39 200 25 58 25 69 92 79 21 166 100 46 48 174 32 158 23 79 23 36 113 21 80 35 91 158 538 164 113 90 63 206 83 123 60 41 64 116 138 70 36 84 236 167 37 37 111 36 68 45 64 160 44 40 32 137 45 131 23 307 24 96 24 20 100 34 40 157 178 59 22 35 21 78 26 79 159 35 138 60 24 48 232 23 94 66 86 84 38 85 163 67 158 42 61 35 26 88 70 22 79 155 71 49 27 119 23 108 94 35 34 118 52 30 55 91 62 81 40 21 92 21 20 22 63 77 21 24 29 35 120 38 112 38 42 224 131
internal_value=0 -14.7003 44.4926 -2.03296 6.94742 -65.1155 -27.3722 -10.451 17.4088 17.4875 25.1875 71.1303 -34.9604 -46.3562 8.02757 -3.71744 30.0378 75.7596 47.2615 -24.5462 -84.945 12.4776 69.6787 34.1614 -52.7496 -34.5512 16.501 -11.983 -8.50761 -4.55532 0.66698 -71.1321 16.1248 -45.6844 -9.54479 -5.2135 0.20808 6.03738 75.0688 21.3378 -94.721 -90.4121 -84.594 -78.311 -16.4576 -12.6715 -8.12905 -3.51679 -40.4229 -35.2464 -28.7952 -22.1083 -50.2634 101.441 -42.6728 -38.3396 -32.8648 -26.9184 7.57776 19.2139 -22.5374 0.318853 6.15012 -72.6941 9.45198 11.2277 -36.9765 -32.4695 -27.3421 -20.4522 21.0352 24.9821 30.3174 35.6588 -2.06357 26.0282 -7.72388 -69.7446 -60.5135 -55.9454 -50.3096 -44.5456 25.8933 -62.717 -56.9774 -49.4548 -40.9037 -3.1722 1.27737 7.63202 28.3426 41.7338 -17.959 -74.4142 -68.8291 -62.0131 -55.3261 -13.403 -8.61711 -2.92486 20.7953 13.2131 15.6483 18.4512 21.7302 10.9869 -83.5558 -78.6828 -73.0704 -66.6977 44.907 52.5146 86.0318 58.5898 33.1357 38.1432 43.285 48.5561 14.1254 13.8383 49.8939 33.4704 41.2447 13.3548 17.2058 21.6984 27.306 30.9438 -31.4339 -25.6219 -60.8795 -56.1954 -50.2185 -44.5212 3.21363 -59.4159 -19.0856 -13.341 82.1062 90.2993 25.4892 22.2658 18.3229 12.1546 9.3336 14.3877 56.1201 -92.0554 28.1204 -14.2581 -29.0032 -38.4304 -18.2299 -4.62682 33.5947 -55.7013 -52.511 -48.3864 52.6069 10.531 60.5547 10.9769 13.5785 16.7522 20.0935 46.364 42.5898 -25.6194 -36.6915 6.03017 21.4805 18.2462 33.2961 37.0253 41.1194 26.8964 14.3638 11.4976 4.50722 0.346219 -33.1503 -14.7642 -28.6833 -21.6533 -18.4082 -1.80891 3.41295 63.7879 68.7134 113.871 7.38225 14.9938 46.4074 -26.4136 0.396822 -24.8419 -29.2385 -13.5117 -118.845 64.6455 66.6932 -11.0199 117.32 20.734 -31.4709 78.6453 -119.586 44.4146 -18.6733 37.2477 -35.6752 -27.8634 -83.5429 -30.1962 24.5384 -22.7546 47.4199 50.6314 54.4345 -13.6611 -17.7296 32.9013 25.2689 -62.0479 -120.504 -18.6501 19.8891 -34.3565 -30.8027 62.08 -34.4502 25.6493 29.4524 47.7514 52.2769 39.7677 33.5273 59.3021 63.7459 -35.9141 -26.457 -45.3712 -0.861686 5.39498 27.0827 -20.3127 -22.4134 64.706 69.6912
internal_weight=0 14905 4937 11912 8795 2993 3117 3318 2448 5477 2049 2489 2654 1538 3123 2838 2354 2246 790 1674 1455 959 1816 1610 980 1062 2107 1879 1614 1377 1144 603 463 739 1016 865 725 620 1382 1564 852 730 606 512 1109 946 790 686 565 481 400 345 480 430 713 611 515 441 389 766 399 240 960 476 1211 1138 489 417 354 292 589 503 418 359 480 896 439 424 400 340 286 248 1175 250 212 176 148 372 320 264 243 1021 349 241 203 172 147 299 255 211 707 1061 913 783 664 188 248 214 181 155 828 434 192 602 223 189 164 630 515 223 139 458 306 354 300 252 206 316 157 132 228 193 157 134 568 323 369 247 825 245 563 450 360 269 319 236 118 203 193 193 324 163 73 249 468 276 241 204 472 423 179 450 384 320 275 241 201 275 207 287 158 438 198 168 144 99 480 380 231 191 265 288 93 71 229 148 124 402 238 238 263 125 120 89 311 138 115 217 124 557 473 165 198 374 237 580 88 235 151 170 156 86 120 233 231 125 200 169 142 289 202 101 66 277 122 109 119 151 124 199 81 135 114 293 187 106 84 118 98 118 59 59 156 75 232 78 87 435 211
internal_count=19842 14905 4937 11912 8795 2993 3117 3318 2448 5477 2049 2489 2654 1538 3123 2838 2354 2246 790 1674 1455 959 1816 1610 980 1062 2107 1879 1614 1377 1144 603 463 739 1016 865 725 620 1382 1564 852 730 606 512 1109 946 790 686 565 481 400 345 480 430 713 611 515 441 389 766 399 240 960 476 1211 1138 489 417 354 292 589 503 418 359 480 896 439 424 400 340 286 248 1175 250 212 176 148 372 320 264 243 1021 349 241 203 172 147 299 255 211 707 1061 913 783 664 188 248 214 181 155 828 434 192 602 223 189 164 630 515 223 139 458 306 354 300 252 206 316 157 132 228 193 157 134 568 323 369 247 825 245 563 450 360 269 319 236 118 203 193 193 324 163 73 249 468 276 241 204 472 423 179 450 384 320 275 241 201 275 207 287 158 438 198 168 144 99 480 380 231 191 265 288 93 71 229 148 124 402 238 238 263 125 120 89 311 138 115 217 124 557 473 165 198 374 237 580 88 235 151 170 156 86 120 233 231 125 200 169 142 289 202 101 66 277 122 109 119 151 124 199 81 135 114 293 187 106 84 118 98 118 59 59 156 75 232 78 87 435 211
cat_boundaries=0 1 2 3 4 5 6 7 8 9 10 11 12 13 14 15 16 17 18 19 20 21 22
cat_threshold=1 2 8 8 2 8 4 2 2 2 4 8 4 4 8 8 8 8 8 4 8 4
shrinkage=0.05


Tree=4
num_leaves=250
num_cat=21
split_feature=3 2 0 0 2 2 2 1 2 1 0 0 0 3 2 3 0 3 3 3 1 1 0 0 0 0 0 2 3 4 5 5 4 1 2 3 1 1 0 3 3 4 4 5 5 2 3 5 5 4 4 0 4 4 5 5 1 5 5 4 4 5 5 4 4 4 4 5 5 3 2 5 2 3 4 4 5 0 4 4 5 5 2 0 4 4 4 5 5 2 4 4 5 5 5 4 4 5 5 5 5 5 4 4 4 4 5 5 0 3 2 4 4 4 5 5 4 5 5 4 5 5 4 4 4 4 2 0 4 2 2 0 4 5 5 4 1 4 5 5 1 2 0 1 5 5 5 4 0 1 3 1 0 1 5 4 5 4 4 2 2 2 4 4 1 5 5 4 0 5 5 4 4 5 4 4 4 5 5 4 0 4 5 5 4 5 0 1 0 2 3 0 0 1 3 3 1 4 4 4 5 5 0 4 4 4 5 5 0 0 4 5 5 2 5 5 4 4 0 3 1 1 1 0 5 5 4 0 0 5 4 4 1 4 4 4 5 1 1 3 3 4 4 4 5 4 5 4 4
split_gain=1.18021e+07 8.44564e+06 3.25738e+06 2.45327e+06 1.51523e+06 1.00472e+06 924018 838584 686263 578456 527426 454682 441554 437089 430747 346001 291830 210365 172363 164635 164203 154199 151641 150658 146490 142127 139517 136792 120782 120355 132760 173915 159012 119165 125082 119460 102722 99905.6 98128.1 93848.4 90707.5 85196 94180.7 111768 140916 76236.1 73851.5 73761 87102.8 98212.9 115389 70976.9 69334.6 91906.2 87142.1 120020 67089.7 63105.8 73974.4 78350.3 107778 62957.7 81550.4 82204 114324 61595.9 81504.1 82085.1 110644 57777.3 54365.6 50160.4 49455 49047.6 48911.8 67538.6 61961.4 45727.5 45228.5 55553.9 53333.9 60164.4 43490.7 42271.4 41864.5 40581.8 43519.8 49862.9 62423.9 40324.8 40290.4 49306.3 48376.1 65541.2 38531 42052.8 48657 56401.9 36598.5 44069.1 40667.7 53676.3 43355.2 59291.4 36336.3 51773.5 43829.8 52611.5 35743.1 35278.4 34934.2 34542.3 34267.7 32157.8 33670.1 45264.6 49166.8 31105.1 38286.1 34304.1 29950.3 33807.2 39949.8 30131.1 29939.3 29628.5 28694.5 27296 27223.6 26557.6 26416.4 33069.8 25848.7 32553 43056.4 25135.6 24553.9 24204 23875.9 28162.2 23589.1 23472.2 22765 31420.6 22719.9 22515.5 26032.9 31942.8 22197.5 21461.4 25183.6 21162.6 21018.6 20857.2 19521.1 19896 19044.8 22875 18852.9 18825.9 18617.6 18494.3 17869.6 37430.9 17409.9 17409.5 20714.8 20567.9 16981.8 16786 17311.4 18305.9 23284 16709.9 16696.3 16640.1 25667.3 16604 22597.8 21037.9 16338.3 16281.5 15294.4 21007.6 20641.9 15184.3 14938.9 14603.8 14542.2 14431.6 14060.8 13770.6 13751.4 13694.4 14772.6 13433.8 13290.5 13125.4 13013.9 20526.8 20258.1 25474.5 12983.5 12907.4 12874.9 17503.7 14286.1 16861 12716.3 12650.9 12513.6 14062 15879.4 12316 12218.7 15342.8 13642.6 15112.2 13837.6 11726.1 11557.4 11283.4 11214.1 11178.1 11142.4 15040 11090.9 11048.8 17386.1 10998 11709.8 15254.6 10957 10930.5 10922 10917.2 10749.4 10611.5 10493.2 12650.6 10404.3 10278.6 24854.5 10212.5 10159.8 10975.2 12904.4 14487.8 10136.8
threshold=0 68.895000000000024 0.94850000000000012 0.96050000000000002 70.565500000000014 68.010000000000005 72.006000000000014 0.35650000000000009 68.164500000000018 0.34850000000000003 0.97850000000000015 0.97850000000000015 0.95750000000000013 1 68.895000000000024 2 0.91100000000000014 3 4 5 0.35250000000000009 0.35050000000000009 0.95850000000000013 0.94350000000000012 0.94350000000000012 0.9295000000000001 0.94100000000000017 70.086000000000027 6 -100972.49999999999 -100972.49999999999 100972.50000000001 115625.50000000001 0.35450000000000004 73.281500000000008 7 0.34450000000000003 0.34850000000000003 0.97450000000000014 8 9 100972.50000000001 -100972.49999999999 -100972.49999999999 115625.50000000001 69.959500000000006 10 100972.50000000001 -100972.49999999999 -100972.49999999999 115625.50000000001 0.95850000000000013 100972.50000000001 -100972.49999999999 -100972.49999999999 115625.50000000001 0.34750000000000009 100972.50000000001 -100972.49999999999 -100972.49999999999 115625.50000000001 -100972.49999999999 100972.50000000001 115625.50000000001 -100972.49999999999 -100972.49999999999 100972.50000000001 -100972.49999999999 115625.50000000001 11 70.582000000000008 -100972.49999999999 69.893500000000017 12 -100972.49999999999 100972.50000000001 115625.50000000001 0.94450000000000012 -100972.49999999999 100972.50000000001 -100972.49999999999 115625.50000000001 67.313000000000017 0.9285000000000001 -100972.49999999999 100972.50000000001 -100972.49999999999 -100972.49999999999 115625.50000000001 72.53700000000002 100972.50000000001 -100972.49999999999 115625.50000000001 -100972.49999999999 100972.50000000001 100972.50000000001 -100972.49999999999 -100972.49999999999 -100972.49999999999 100972.50000000001 59148.250000000007 -36075.599609374993 -59148.249999999993 82020.101562500015 100972.50000000001 -100972.49999999999 115625.50000000001 -100972.49999999999 0.9295000000000001 13 71.188500000000019 100972.50000000001 134648.50000000003 100972.50000000001 100972.50000000001 -100972.49999999999 -100972.49999999999 100972.50000000001 -100972.49999999999 -100972.49999999999 -100972.49999999999 100972.50000000001 115625.50000000001 -94270.101562499985 115625.50000000001 115625.50000000001 73.809500000000014 0.97150000000000014 100972.50000000001 69.936000000000021 71.183500000000024 0.9305000000000001 -100972.49999999999 -100972.49999999999 115625.50000000001 -100972.49999999999 0.34750000000000009 -100972.49999999999 -36075.599609374993 36075.599609375007 0.35650000000000009 70.793500000000009 0.92600000000000016 0.34300000000000003 -100972.49999999999 -100972.49999999999 100972.50000000001 115625.50000000001 0.92400000000000004 0.35150000000000009 14 0.35150000000000009 0.98700000000000021 0.34150000000000008 -100972.49999999999 -100972.49999999999 100972.50000000001 115625.50000000001 -100972.49999999999 67.723000000000027 71.322500000000005 71.058500000000024 36075.599609375007 -36075.599609374993 0.34750000000000009 -100972.49999999999 100972.50000000001 115625.50000000001 0.96650000000000014 -100972.49999999999 100972.50000000001 -100972.49999999999 115625.50000000001 94270.101562500015 -100972.49999999999 36075.599609375007 -1.3501280388822343e-11 -100972.49999999999 100972.50000000001 115625.50000000001 0.97150000000000014 -94270.101562499985 -100972.49999999999 100972.50000000001 115625.50000000001 100972.50000000001 0.95950000000000013 0.35450000000000004 0.95750000000000013 70.582000000000008 15 0.97150000000000014 0.92200000000000004 0.35150000000000009 16 17 0.34750000000000009 36075.599609375007 -59148.249999999993 36075.599609375007 82020.101562500015 -59148.249999999993 0.89800000000000002 100972.50000000001 59148.250000000007 -36075.599609374993 -59148.249999999993 82020.101562500015 0.93250000000000011 0.95950000000000013 -100972.49999999999 115625.50000000001 -100972.49999999999 69.329000000000022 -100972.49999999999 100972.50000000001 -100972.49999999999 115625.50000000001 0.94650000000000012 18 0.34750000000000009 0.34650000000000009 0.34950000000000003 0.98250000000000004 -100972.49999999999 -82020.101562499985 43523.199218750007 0.91750000000000009 0.9305000000000001 -100972.49999999999 100972.50000000001 -100972.49999999999 0.35150000000000009 36075.599609375007 -36075.599609374993 82020.101562500015 -100972.49999999999 0.35150000000000009 0.35150000000000009 19 20 36075.599609375007 -36075.599609374993 -1.3501280388822343e-11 -100972.49999999999 -100972.49999999999 100972.50000000001 115625.50000000001 94270.101562500015
decision_type=1 2 2 2 2 2 2 2 2 2 2 2 2 1 2 1 2 1 1 1 2 2 2 2 2 2 2 2 1 2 2 2 2 2 2 1 2 2 2 1 1 2 2 2 2 2 1 2 2 2 2 2 2 2 2 2 2 2 2 2 2 2 2 2 2 2 2 2 2 1 2 2 2 1 2 2 2 2 2 2 2 2 2 2 2 2 2 2 2 2 2 2 2 2 2 2 2 2 2 2 2 2 2 2 2 2 2 2 2 1 2 2 2 2 2 2 2 2 2 2 2 2 2 2 2 2 2 2 2 2 2 2 2 2 2 2 2 2 2 2 2 2 2 2 2 2 2 2 2 2 1 2 2 2 2 2 2 2 2 2 2 2 2 2 2 2 2 2 2 2 2 2 2 2 2 2 2 2 2 2 2 2 2 2 2 2 2 2 2 2 1 2 2 2 1 1 2 2 2 2 2 2 2 2 2 2 2 2 2 2 2 2 2 2 2 2 2 2 2 1 2 2 2 2 2 2 2 2 2 2 2 2 2 2 2 2 2 2 2 1 1 2 2 2 2 2 2 2 2
left_child=2 5 14 4 7 19 11 15 51 13 21 17 28 23 82 20 45 47 26 71 56 84 78 108 37 148 130 104 111 196 220 32 69 35 214 77 73 142 85 186 128 42 191 238 127 140 144 48 -5 -50 204 -4 53 -28 -55 126 129 58 -42 -60 189 -30 63 64 -63 -24 67 -67 -69 83 158 -2 -23 223 -73 76 159 151 -21 80 -80 188 -1 197 -10 86 -14 -88 -89 141 91 -41 93 -93 95 96 -74 -98 -86 100 101 124 -103 168 105 -13 107 -107 192 -36 237 117 -105 114 115 -40 -117 118 -7 -120 -38 122 123 -122 175 -102 -56 149 132 185 -11 -132 -29 -134 -135 -72 219 -48 -99 226 -16 -37 143 -18 -9 -137 147 221 -15 150 -45 208 -125 -53 -143 -156 157 162 -12 -76 241 222 163 -157 -85 -139 167 -167 -104 -58 171 -171 232 181 -155 176 -100 -160 179 213 193 -146 -176 184 -184 248 236 -22 -82 -61 -150 -19 -6 194 -43 -138 -17 -32 -71 200 201 -200 -153 210 205 -51 -207 -208 -20 243 -112 212 -212 -179 -35 216 -216 218 -218 -66 -31 -147 -129 -8 -144 -226 -140 -39 -229 -192 231 -231 -173 234 -223 -183 -27 -26 239 -44 -59 242 -47 -95 -25 -246 247 -247 -3
right_child=1 3 8 6 9 12 36 46 10 18 70 27 38 25 16 29 24 41 33 22 187 72 65 244 110 39 52 40 61 30 31 -33 -34 34 109 89 120 227 113 90 57 180 43 44 -46 160 137 -49 49 50 -52 153 -54 54 55 -57 169 240 59 60 -62 62 -64 -65 136 66 -68 68 -70 198 135 74 94 -75 75 -77 -78 -79 79 -81 81 -83 -84 164 98 -87 87 88 -90 -91 -92 92 -94 209 -96 -97 97 138 99 -101 125 102 103 112 -106 106 -108 -109 -110 -111 203 -113 -114 -115 -116 116 -118 -119 119 -121 121 -123 -124 152 -126 -127 -128 161 -130 -131 131 -133 133 134 -136 145 195 165 139 -141 -142 154 224 -145 173 146 -148 -149 190 -151 -152 202 -154 174 155 156 -158 -159 177 -161 -162 -163 -164 -165 -166 166 -168 -169 -170 170 -172 172 -174 -175 182 -177 -178 178 -180 -181 -182 235 183 -185 -186 -187 -188 -189 -190 -191 229 -193 -194 -195 -196 -197 -198 -199 199 -201 -202 -203 -204 -205 -206 206 207 -209 -210 -211 211 -213 -214 -215 215 -217 217 -219 -220 -221 -222 233 -224 -225 225 -227 -228 228 -230 230 -232 -233 -234 -235 -236 -237 -238 -239 -240 -241 -242 -243 -244 -245 245 246 -248 -249 -250
leaf_value=0.38164908505584066 -5.9735073390759927 1.3992030522946655 0.26956851404982729 -3.2173537673019781 3.7706585178127541 -1.6765397955731647 -1.6009293460845946 -2.845308773858207 1.2091662658330722 0.14945113298239981 -2.1815481730869837 -4.941362449450371 -3.9062334547651574 1.8140041738632862 4.2848922730547141 -1.0429803648874874 3.0381783648235046 -1.3026349813981062 2.711500672672106 -4.1240894438728457 -0.16668506213708928 0.05189836223920187 -5.4312705062684561 0.53181477219160811 3.3116745211954774 0.54354037941075295 -1.8242263612539873 -2.5005516852101977 -3.1718857118453103 -1.0046892207704092 -0.89750745002594268 -1.4773330856290499 -1.3089915434625699 -1.7555752125653354 0.23898578484853111 -0.5753520326782019 0.064687431195089892 2.5022470718775041 -5.3030907948811858 -0.95136291296549258 -3.8344113170236782 -0.35970476640237348 -1.0013040313720702 1.215024011350069 -1.7951310688146838 5.2593974771170782 -3.9235383378698474 -3.3624127658796903 -3.2770599208894327 -0.33538779073639924 -3.1736499820436754 -0.27160319624202595 -1.8564357229458388 -1.7907608982232901 0.3992579205552873 -1.7806080898871788 -0.23051186814904212 -3.3520794630050661 -3.9025824765364328 -1.8035787335564111 -3.9043811148785532 -3.1035148620605471 -3.1065977868069425 -3.0820506182583896 -2.1865577747947293 -5.4398519447871614 -5.3885464036321071 -2.9708538908353996 -5.3847314131887343 1.2210068395402698 -1.0606583323743608 -5.930226182101066 0.27551050885890921 0.52012970232510869 -3.9278456467125809 -5.8746699015299484 -5.8285777115240336 0.89968221093397271 -4.2204034468706917 -4.1247407701280379 -1.9898856756764074 -3.9549756127434805 1.8271819312644728 0.75247440070755056 1.3021680116773613 -4.0165283203125002 -3.9528524965853311 -1.6038556491627416 -3.8775167200300431 1.1052363986915059 -1.0711769828901572 -1.0327248898419468 -1.004611182731131 1.5448275594428036 0.11570462736611564 0.15432333209109111 0.32232964313497736 2.8589660061150788 3.1373859381373927 1.4070821903089978 3.5206159973144531 3.3172656310232065 1.1978915420197349 3.6728993293566585 -4.9967781891693939 -4.8630254572088072 -4.9531134563943624 -2.2130331758468871 2.3755160095327992 1.7257359953303089 1.4082717296055387 -2.0200858549638228 1.6146487913840073 -5.4465286030488862 -5.2868736267089851 -5.2046993560791019 -2.7788953150351219 -1.8345431177239668 -1.5433699003855388 0.29909508797340095 0.71463902692000081 0.22093544235272755 0.085600364208221438 3.3615287593432832 1.6526366258209404 1.5105800205333668 1.8429425857005974 -0.12025759932471486 -2.6285827285365055 1.9188944512605666 1.5705202631328419 0.27854856129350336 -2.563566178541917 -0.25690047460012749 -2.534605239868164 -1.0523489783207576 -0.9104767688359211 -3.6774207384158402 0.92212275450288406 2.518959418978346 2.9089052865671561 -0.37853193353498127 3.2088305859338671 4.5485576629638675 -2.30238667845726 1.8899282455444337 -0.83606642352210159 -0.76022338041663173 1.5667982850593842 -0.20536817894740539 0.20520701801180841 2.114059946877616 2.0302144043029302 -2.4727350101914518 -0.33640831592290299 1.3701366391934848 -0.16048156921177695 -0.15128800772851514 -2.0340090378471043 -2.7649016789027625 5.8001600457987657 0.3975138779493827 1.4625156013621499 0.020865506888367236 -0.063860845513155934 -2.1037314781885663 -3.5778692626953124 -3.4528979581945083 -0.10348541945699724 -0.1360379106551409 -0.10789225739426911 1.4000870252843776 -0.080188808970981185 -2.5290405327623544 -2.3681645393371582 3.7669619867878574 1.1706926837563516 -0.69806564724759057 -1.8722908633095878 -1.6971001364968039 -2.4060059806278775 -0.38451786193763837 -0.74852358260922303 -2.3147986747123102 -2.2365717479160856 -0.15005340824524563 0.14909145832061768 -1.0524792720563709 -0.96888055745098323 -0.98908897820391406 -0.093161886806289354 -2.233229515893119 3.0011490037885764 -2.4197056231498717 -1.7726088755839582 -0.16694495894692163 -1.8007317760939239 -0.054642763229853966 1.3024869918823243 0.99452328993908834 1.2506447675751478 -0.25056048668674286 1.0459120409171048 1.2573591771878696 -0.0037872715971686622 -0.022856413750421436 -1.7309696182768832 -0.16236794277848232 1.7714068828929557 -0.13930527746677399 1.4874991705020271 1.3627360973358156 2.9058623210803884 0.44512077608416156 -1.7196248077210925 -1.6889835946700154 -0.93905430655876132 -1.4549334966219389 0.21533062652438539 -0.97435548702875774 -1.752039847109053 1.2622979039731232 -0.94717205152278994 -0.38647818300459119 4.8156018363104929 3.7552836656190784 2.2551238271594047 3.4440274223808416 2.8471221598183241 0.14825279827540119 -0.016548073078904834 1.5669700301848613 0.62519295990467072 1.757665258905162 -0.19671461828823747 -1.6545998117198115 1.240726438109335 2.563138077259064 -2.6803523632196282 -2.163763911073858 -4.5541769027709966 5.4482128112546864 3.5868790037102176 0.8638099153179768 0.52706319210636943 2.0302561535322963 0.68376264456779734 0.68546008573224149 0.22857124534520237
leaf_weight=76 76 116 77 82 77 41 40 28 156 157 28 39 47 322 113 84 41 92 46 63 76 120 84 34 116 65 92 31 87 76 144 233 187 33 84 80 31 78 30 71 69 37 50 122 108 58 47 81 61 95 56 35 93 65 293 65 65 36 48 85 47 64 89 66 38 56 83 284 57 90 36 57 60 158 203 60 41 456 34 54 155 37 165 124 124 52 37 187 36 163 68 44 46 101 72 61 51 80 79 134 110 38 131 39 37 22 23 126 236 76 35 44 42 34 32 25 127 38 30 160 24 31 23 56 44 22 39 82 38 160 115 87 26 122 25 24 122 39 71 76 43 82 84 215 20 40 27 25 151 88 125 35 63 43 69 95 73 62 23 42 109 79 97 112 138 167 40 34 31 45 64 153 45 22 35 62 21 38 28 22 70 64 139 37 28 24 42 120 45 151 24 70 236 25 37 121 186 68 32 155 41 151 152 38 55 21 93 21 165 20 24 25 111 62 21 34 37 26 87 42 162 23 82 36 36 471 20 242 246 24 21 90 65 23 29 23 370 80 26 44 36 62 36 121 27 121 31 24 22
leaf_count=76 76 116 77 82 77 41 40 28 156 157 28 39 47 322 113 84 41 92 46 63 76 120 84 34 116 65 92 31 87 76 144 233 187 33 84 80 31 78 30 71 69 37 50 122 108 58 47 81 61 95 56 35 93 65 293 65 65 36 48 85 47 64 89 66 38 56 83 284 57 90 36 57 60 158 203 60 41 456 34 54 155 37 165 124 124 52 37 187 36 163 68 44 46 101 72 61 51 80 79 134 110 38 131 39 37 22 23 126 236 76 35 44 42 34 32 25 127 38 30 160 24 31 23 56 44 22 39 82 38 160 115 87 26 122 25 24 122 39 71 76 43 82 84 215 20 40 27 25 151 88 125 35 63 43 69 95 73 62 23 42 109 79 97 112 138 167 40 34 31 45 64 153 45 22 35 62 21 38 28 22 70 64 139 37 28 24 42 120 45 151 24 70 236 25 37 121 186 68 32 155 41 151 152 38 55 21 93 21 165 20 24 25 111 62 21 34 37 26 87 42 162 23 82 36 36 471 20 242 246 24 21 90 65 23 29 23 370 80 26 44 36 62 36 121 27 121 31 24 22
